tree
version=v4
num_class=1
num_tree_per_iteration=1
label_index=0
max_feature_idx=191
objective=binary sigmoid:1
feature_names=ae_0 ae_1 ae_2 ae_3 ae_4 ae_5 ae_6 ae_7 ae_8 ae_9 ae_10 ae_11 ae_12 ae_13 ae_14 ae_15 ae_16 ae_17 ae_18 ae_19 ae_20 ae_21 ae_22 ae_23 ae_24 ae_25 ae_26 ae_27 ae_28 ae_29 ae_30 ae_31 ae_0_lag_1 ae_1_lag_1 ae_2_lag_1 ae_3_lag_1 ae_4_lag_1 ae_5_lag_1 ae_6_lag_1 ae_7_lag_1 ae_8_lag_1 ae_9_lag_1 ae_10_lag_1 ae_11_lag_1 ae_12_lag_1 ae_13_lag_1 ae_14_lag_1 ae_15_lag_1 ae_16_lag_1 ae_17_lag_1 ae_18_lag_1 ae_19_lag_1 ae_20_lag_1 ae_21_lag_1 ae_22_lag_1 ae_23_lag_1 ae_24_lag_1 ae_25_lag_1 ae_26_lag_1 ae_27_lag_1 ae_28_lag_1 ae_29_lag_1 ae_30_lag_1 ae_31_lag_1 ae_0_lag_2 ae_1_lag_2 ae_2_lag_2 ae_3_lag_2 ae_4_lag_2 ae_5_lag_2 ae_6_lag_2 ae_7_lag_2 ae_8_lag_2 ae_9_lag_2 ae_10_lag_2 ae_11_lag_2 ae_12_lag_2 ae_13_lag_2 ae_14_lag_2 ae_15_lag_2 ae_16_lag_2 ae_17_lag_2 ae_18_lag_2 ae_19_lag_2 ae_20_lag_2 ae_21_lag_2 ae_22_lag_2 ae_23_lag_2 ae_24_lag_2 ae_25_lag_2 ae_26_lag_2 ae_27_lag_2 ae_28_lag_2 ae_29_lag_2 ae_30_lag_2 ae_31_lag_2 ae_0_lag_3 ae_1_lag_3 ae_2_lag_3 ae_3_lag_3 ae_4_lag_3 ae_5_lag_3 ae_6_lag_3 ae_7_lag_3 ae_8_lag_3 ae_9_lag_3 ae_10_lag_3 ae_11_lag_3 ae_12_lag_3 ae_13_lag_3 ae_14_lag_3 ae_15_lag_3 ae_16_lag_3 ae_17_lag_3 ae_18_lag_3 ae_19_lag_3 ae_20_lag_3 ae_21_lag_3 ae_22_lag_3 ae_23_lag_3 ae_24_lag_3 ae_25_lag_3 ae_26_lag_3 ae_27_lag_3 ae_28_lag_3 ae_29_lag_3 ae_30_lag_3 ae_31_lag_3 ae_0_lag_4 ae_1_lag_4 ae_2_lag_4 ae_3_lag_4 ae_4_lag_4 ae_5_lag_4 ae_6_lag_4 ae_7_lag_4 ae_8_lag_4 ae_9_lag_4 ae_10_lag_4 ae_11_lag_4 ae_12_lag_4 ae_13_lag_4 ae_14_lag_4 ae_15_lag_4 ae_16_lag_4 ae_17_lag_4 ae_18_lag_4 ae_19_lag_4 ae_20_lag_4 ae_21_lag_4 ae_22_lag_4 ae_23_lag_4 ae_24_lag_4 ae_25_lag_4 ae_26_lag_4 ae_27_lag_4 ae_28_lag_4 ae_29_lag_4 ae_30_lag_4 ae_31_lag_4 ae_0_lag_5 ae_1_lag_5 ae_2_lag_5 ae_3_lag_5 ae_4_lag_5 ae_5_lag_5 ae_6_lag_5 ae_7_lag_5 ae_8_lag_5 ae_9_lag_5 ae_10_lag_5 ae_11_lag_5 ae_12_lag_5 ae_13_lag_5 ae_14_lag_5 ae_15_lag_5 ae_16_lag_5 ae_17_lag_5 ae_18_lag_5 ae_19_lag_5 ae_20_lag_5 ae_21_lag_5 ae_22_lag_5 ae_23_lag_5 ae_24_lag_5 ae_25_lag_5 ae_26_lag_5 ae_27_lag_5 ae_28_lag_5 ae_29_lag_5 ae_30_lag_5 ae_31_lag_5
feature_infos=[-64.107406616210938:39.534595489501953] [-27.381927490234375:27.01513671875] [-15.756026268005371:14.677836418151855] [-42.825050354003906:134.29023742675781] [-3.9647200107574463:17.42950439453125] [-75.325881958007812:28.053302764892578] [-3.6769680976867676:8.8467998504638672] [-4.5029559135437012:20.509624481201172] [-12.602227210998535:27.430658340454102] [-100.59207153320312:11.568147659301758] [-35.765354156494141:23.929416656494141] [-4.5308208465576172:81.739837646484375] [-11.824156761169434:159.90174865722656] [-3.8010749816894531:28.755769729614258] [-19.428709030151367:9.3417587280273438] [-39.518386840820312:9.1807594299316406] [-1.3279235363006592:201.14230346679688] [-118.75724029541016:36.248008728027344] [-7.7274937629699707:9.5859851837158203] [-23.078351974487305:99.149284362792969] [-49.192554473876953:7.4276928901672363] [-30.536924362182617:34.221176147460938] [-4.937614917755127:9.9001798629760742] [-19.158842086791992:9.5135765075683594] [-4.7321062088012695:13.939875602722168] [-2.3766067028045654:15.871087074279785] [-24.556694030761719:6.8142075538635254] [-16.73187255859375:26.250383377075195] [-6.3106398582458496:36.103771209716797] [-27.699041366577148:34.880973815917969] [-13.76172924041748:10.625784873962402] [-20.094112396240234:69.444190979003906] [-62.892288208007812:5.5608868598937988] [-22.713811874389648:8.1580038070678711] [-18.418600082397461:4.7401514053344727] [-60.752113342285156:117.20413208007812] [-4.0893740653991699:17.98829460144043] [-65.685104370117188:29.428989410400391] [-3.5490856170654297:9.6612472534179688] [-4.5768399238586426:21.833534240722656] [-11.075971603393555:31.416187286376953] [-40.46832275390625:13.483449935913086] [-47.346500396728516:20.905248641967773] [-6.2080316543579102:44.707183837890625] [-11.091677665710449:144.152587890625] [-2.7186107635498047:26.601648330688477] [-26.78941535949707:9.4548673629760742] [-48.886856079101562:4.21533203125] [-1.2546463012695312:144.14691162109375] [-132.32785034179688:31.434465408325195] [-16.524229049682617:8.1909399032592773] [-24.25422477722168:17.180736541748047] [-50.684215545654297:4.3027024269104004] [-25.516317367553711:13.356561660766602] [-3.5580675601959229:16.413049697875977] [-18.487264633178711:4.1143069267272949] [-5.3901691436767578:15.693819999694824] [-2.2184786796569824:8.5571470260620117] [-8.6681251525878906:5.8157939910888672] [-17.019317626953125:5.0541439056396484] [-5.3402767181396484:37.236968994140625] [-26.917844772338867:6.390833854675293] [-14.082066535949707:5.4184985160827637] [-19.463161468505859:17.527566909790039] [-63.980018615722656:18.861591339111328] [-24.10869026184082:24.537406921386719] [-17.108078002929688:4.4207663536071777] [-114.99745941162109:238.48294067382812] [-3.0185058116912842:29.533880233764648] [-136.96818542480469:29.428989410400391] [-3.9333462715148926:10.602960586547852] [-4.5550351142883301:27.205440521240234] [-10.09256649017334:62.384807586669922] [-127.40264892578125:12.288804054260254] [-89.213180541992188:22.830987930297852] [-4.5308208465576172:118.34787750244141] [-11.345110893249512:288.89349365234375] [-2.530980110168457:43.435756683349609] [-52.293880462646484:8.6483850479125977] [-89.447959899902344:10.684055328369141] [-1.2546463012695312:308.0050048828125] [-260.72940063476562:33.357086181640625] [-16.434589385986328:8.1909399032592773] [-23.104530334472656:102.58533477783203] [-98.386344909667969:5.1306557655334473] [-46.168888092041016:37.337318420410156] [-3.5580675601959229:31.753318786621094] [-26.568035125732422:3.8633217811584473] [-14.012538909912109:15.693819999694824] [-2.2448844909667969:18.687065124511719] [-18.855190277099609:6.1727442741394043] [-15.75651741027832:16.404136657714844] [-7.4979066848754883:61.556812286376953] [-26.153749465942383:36.587593078613281] [-14.052912712097168:8.5248737335205078] [-20.780235290527344:76.58111572265625] [-84.500541687011719:7.443183422088623] [-32.084320068359375:8.6439666748046875] [-17.108078002929688:4.3869590759277344] [-114.99745941162109:115.72942352294922] [-3.2957851886749268:17.89842414855957] [-63.621601104736328:53.402645111083984] [-3.5976903438568115:10.602960586547852] [-7.610074520111084:22.975095748901367] [-9.7843914031982422:62.384807586669922] [-40.46832275390625:20.073741912841797] [-89.213180541992188:20.885747909545898] [-2.8997395038604736:43.788246154785156] [-11.036022186279297:135.83204650878906] [-2.8003904819488525:26.200752258300781] [-52.293880462646484:8.1010236740112305] [-47.772449493408203:21.501655578613281] [-1.2724566459655762:142.76344299316406] [-260.72940063476562:32.934326171875] [-14.704503059387207:8.4878063201904297] [-20.530651092529297:21.638381958007812] [-98.386344909667969:4.9466128349304199] [-46.168888092041016:13.356561660766602] [-7.2630095481872559:23.118425369262695] [-26.568035125732422:4.4969534873962402] [-7.279442310333252:24.643026351928711] [-2.3452010154724121:14.10779857635498] [-8.8922185897827148:6.8142075538635254] [-27.695640563964844:8.1533918380737305] [-11.334512710571289:33.960720062255859] [-35.931838989257812:9.8239688873291016] [-21.921112060546875:5.0529494285583496] [-18.850551605224609:17.527566909790039] [-84.500541687011719:6.9679427146911621] [-32.084320068359375:8.4415903091430664] [-15.745258331298828:4.7331595420837402] [-64.302772521972656:77.541595458984375] [-3.2957851886749268:16.234617233276367] [-44.415077209472656:53.402645111083984] [-3.7755293846130371:7.5420804023742676] [-7.610074520111084:19.132652282714844] [-9.0385684967041016:34.758766174316406] [-39.404960632324219:20.073741912841797] [-50.77996826171875:21.345207214355469] [-3.516758918762207:34.233539581298828] [-11.082516670227051:104.0855712890625] [-3.031325101852417:22.407238006591797] [-28.942163467407227:8.2409896850585938] [-30.619863510131836:21.501655578613281] [-1.4442962408065796:97.257720947265625] [-140.07182312011719:32.934326171875] [-7.150177001953125:9.3468589782714844] [-24.551185607910156:26.421714782714844] [-64.775428771972656:5.1306557655334473] [-26.238483428955078:12.37858772277832] [-7.2630095481872559:13.317782402038574] [-23.097002029418945:3.6264839172363281] [-4.5531187057495117:24.643026351928711] [-2.1864917278289795:8.5571470260620117] [-9.9944181442260742:6.8142075538635254] [-27.695640563964844:8.059478759765625] [-11.334512710571289:23.536228179931641] [-35.931838989257812:11.378877639770508] [-21.921112060546875:6.5055232048034668] [-20.873662948608398:22.262966156005859] [-66.35455322265625:10.001701354980469] [-21.786911010742188:11.992239952087402] [-17.128379821777344:4.1735920906066895] [-114.99745941162109:184.94659423828125] [-3.6074402332305908:21.428918838500977] [-105.34626770019531:33.340530395507812] [-3.7755293846130371:10.602960586547852] [-5.0979113578796387:27.205440521240234] [-8.6117649078369141:62.384807586669922] [-85.698295593261719:12.250567436218262] [-89.213180541992188:20.554691314697266] [-4.5308208465576172:80.166267395019531] [-11.027599334716797:220.25675964355469] [-2.7383353710174561:34.910495758056641] [-52.293880462646484:8.2409896850585938] [-76.809593200683594:14.612483024597168] [-1.1958743333816528:223.83151245117188] [-260.72940063476562:32.691837310791016] [-16.434589385986328:9.3468589782714844] [-24.551185607910156:55.900203704833984] [-98.386344909667969:5.345278263092041] [-46.168888092041016:22.381374359130859] [-4.7050652503967285:29.948923110961914] [-26.568035125732422:4.0624723434448242] [-7.279442310333252:14.946611404418945] [-2.3384089469909668:14.10779857635498] [-14.539792060852051:6.1727442741394043] [-16.241186141967773:8.1587352752685547] [-7.963493824005127:46.307029724121094] [-27.984163284301758:19.198921203613281] [-15.181446075439453:8.5248737335205078] [-20.873662948608398:43.821182250976562]
tree_sizes=3450 3424 3440 3458 3462 3430 3464 3487 3448 3484 3516 3506 3497 3504 3523 3534 3537 3543 3543 3508 3530 3533 3554 3544 3537 3522 3542 3540 3551 3548 3547 3569 3564 3573 3544 3554 3555 3575 3553 3578 3547 3539 3557 3547 3549 3540 3558 3538 3557 3567 3582 3566 3591 3555 3569 3551 3575 3569 3561 3561 3588 3580 3569 3558 3545 3578 3562 3546 3576 3561 3559 3554 3580 3560 3580 3558 3555 3551 3568 3566 3570 3545 3537 3547 3554 3554 3554 3563 3568 3535 3578 3555 3551 3571 3592 3552 3549 3551 3563 3570 3568 3563 3562 3578 3559 3566 3557 3574 3509 3561 3563 3533 3570 3524 3511 3533 3545 3562 3583 3576 3532 3537 3554 3561 3557 3566 3579 3564 3531 3551 3575 3521 3561 3563 3544 3569 3563 3543 3542 3544 3537 3566 3551 3526 3591 3581 3556 3513 3566 3540 3540 3559 3593 3579 3532 3537 3510 3537 3546 3559 3545 3537 3516 3549 3536 3552 3531 3560 3573 3572 3533 3556 3533 3531 3579 3597 3578 3581 3531 3547 3559 3566 3564 3559 3587 3557 3540 3573 3514 3555 3567 3570 3573 3553 3560 3517 3562 3556 3561 3589 3560 3555 3551 3582 3536 3555 3581 3540 3577 3517 3561 3563 3563 3527 3564 3572 3536 3541 3559 3562 3572 3581 3534 3557 3555 3566 3572 3571 3574 3612 3537 3541 3589 3538 3595 3566 3564 3529 3559 3539 3553 3558 3566 3551 3582 3557 3582 3558 3564 3557 3567 3583 3572 3571 3531 3580 3578 3481 3553 3583 3597 3545 3599 3570 3577 3586 3554 3569 3579 3548 3563 3566 3594 3565 3560 3552 3550 3595 3570 3558 3554 3564 3548 3564 3585 3586 3554 3582 3561 3555 3556 3565 3570 3564 3581 3552 3577 3549 3577 3572 3567 3549 3572 3557 3598 3562 3600 3580 3568 3578 3558 3533 3553 3570 3538 3589 3542 3570 3557 3576 3580 3584 3582 3538 3576 3578 3590 3549 3548 3580 3552 3543 3612 3585 3605 3588 3554 3572 3582 3535 3558 3523 3543 3530 3578 3585 3588 3576 3545 3545 3558 3507 3549 3557 3587 3564 3528 3582 3570 3581 3564 3547 3549 3561 3569 3589 3466 3578 3499 3563 3541 3553 3587 3549 3503 3564 3554 3563 3539 3558 3574 3553 3589 3547 3548 3569 3568 3516 3592 3558 3562 3575 3537 3541 3568 3545 3546 3572 3585 3574 3565 3538 3592 3522 3540 3545 3561 3536 3595 3548 3557 3584 3551 3563 3586 3592 3585 3534 3556 3574 3547 3530 3565 3559 3590 3548 3587 3586 3579 3585 3582 3577 3599 3543 3533 3508 3589 3522 3536 3563 3541 3581 3522 3572 3541 3550 3521 3592 3574 3584 3541 3582 3534 3566 3551 3611 3560 3598 3594 3578 3547 3569 3544 3572 3517 3574 3578 3586 3560 3531 3562 3567 3544 3578 3544 3547 3552 3588 3552 3584 3514 3569 3523 3564 3495 3581 3566 3605 3541 3572 3559 3576 3571 3569 3574 3514 3567 3564 3550 3579 3555 3528 3537 3515 3572 3572 3569 3607 3522 3552 3599 3528 3562 3563 3579 3565 3573 3612 3510 3542 3552 3541 3542 3543 3559 3490 3521 3545 3582 3574 3557 3538 3564 3594 3583 3565 3527 3520 3526 3616 3529 3580 3523 3563 3582 3574 3569 3526 3539 3565 3504 3557 3537 3531 3578 3535 3609 3588 3566 3538 3539 3573 3546 3563 3574 3528 3537 3555 3550 3546 3558 3596 3582 3583 3520 3533 3502 3545 3551 3520 3551 3538 3561 3526 3519 3613 3547 3580 3584 3538 3513 3538 3597 3530 3558 3520 3563 3573 3588 3597 3481 3546 3529 3565 3572 3585 3529 3559 3537 3532 3563 3525 3535 3572 3573 3499 3550 3547 3531 3510 3585 3558 3590 3486 3559 3538 3535 3568 3539 3531 3537 3539 3538 3586 3603 3608 3554 3536 3574 3560 3562 3556 3577 3570 3590 3586 3583 3587 3585 3546 3514 3584 3544 3559 3508 3555 3545 3599 3558 3564 3577 3563 3563 3555 3562 3526 3540 3579 3567 3558 3512 3540 3513 3548 3563 3545 3522 3534 3574 3604 3552 3487 3558 3550 3596 3585 3561 3545 3594 3591 3543 3561 3569 3616 3601 3568 3568 3538 3557 3568 3550 3592 3587 3602 3555 3613 3576 3560 3588 3541 3547 3547 3595 3552 3555 3580 3564 3559 3550 3563 3588 3561 3563 3613 3506 3560 3561 3565 3598 3525 3542 3519 3541 3582 3543 3561 3551 3547 3575 3575 3573 3587 3546 3569 3540 3524 3555 3590 3577 3511 3538 3595 3504 3566 3571 3550 3552 3503 3525 3594 3577 3592 3557 3549 3591 3494 3572 3574 3591 3591 3557 3573 3572 3574 3539 3563 3531 3549 3585 3542 3534 3554 3579 3552 3540 3537 3546 3612 3603 3593 3524 3542 3567 3560 3564 3564 3573 3597 3560 3569 3591 3538 3526 3549 3563 3596 3576 3544 3538 3583 3556 3589 3554 3515 3486 3545 3558 3531 3553 3586 3552 3525 3538 3574 3558 3595 3558 3514 3578 3586 3604 3610 3555 3551 3525 3570 3527 3545 3586 3604 3608 3586 3546 3564 3559 3570 3598 3603 3592 3534 3570 3532 3553 3594 3540 3594 3548 3595 3577 3548 3566 3588 3576 3554 3559 3580 3560 3531 3532 3542 3583 3593 3543 3544 3544 3541 3563 3537 3563 3601 3596 3510 3543 3592 3521 3589 3568 3556 3523 3568 3506 3559 3581 3578 3526 3507 3560 3591 3551 3551 3549 3549 3557 3587 3513 3595 3589 3592 3540 3605 3538 3592 3559 3542 3506 3570 3518 3557 3533 3568 3570 3562 3541 3600 3551 3534 3598 3573 3561 3544 3572 3569 3569 3601 3605 3550 3513 3588 3548 3579 3590 3515 3568 3572 3541 3555 3486 3552 3560 3554 3537 3576 3572 3537 3604 3568 3515 3525 3586 3577 3563 3549 3596 3554 3563 3583 3546 3578 3520 3557 3541 3568 3564 3529 3576 3536 3536 3553 3557 3583 3569 3533 3556 3514 3613 3553 3557 3566 3541 3537 3572 3552 3552 3546 3577 3584 3580 3536 3541 3527

Tree=0
num_leaves=31
num_cat=0
split_feature=8 12 12 23 27 3 12 0 13 0 20 6 31 20 12 18 6 6 8 13 21 1 12 12 1 26 12 12 23 8
split_gain=3.53598e+07 5.99697e+06 1.70575e+06 1.36457e+06 1.13313e+06 873790 791566 601406 519365 282837 251483 219374 266064 209294 236758 201120 158074 152838 142761 128617 122055 124971 103956 102139 103960 95506.9 92598.5 284972 168541 90151.9
threshold=0.86251425743103038 2.4012292623519902 -3.5148340463638301 0.71648418903350841 -0.24496987462043759 0.63937547802925121 1.028094530105591 0.89007169008255016 1.0063286423683169 0.35638047754764562 -2.8907630443572994 -0.24579977989196775 0.72792693972587597 -1.1519684791564939 2.1668751239776616 -1.340097904205322 1.1372392773628237 -0.27082215249538416 -1.3520790338516233 0.42213411629199987 -0.38689795136451716 1.7946327924728396 2.7372318506240849 1.5195804238319399 1.965982258319855 -2.1662342548370357 -3.8009802103042598 0.96202778816223156 0.94492626190185558 -3.1310992240905757
decision_type=2 2 2 2 2 2 2 2 2 2 2 2 2 2 2 2 2 2 2 2 2 2 2 2 2 2 2 2 2 2
left_child=1 2 3 17 10 11 -7 18 22 -8 -2 12 -4 -10 -15 -9 23 -1 -3 -12 29 -22 -6 24 -13 -20 -21 28 -28 -5
right_child=4 7 5 20 8 6 9 15 13 -11 19 16 -14 14 -16 -17 -18 -19 25 26 21 -23 -24 -25 -26 -27 27 -29 -30 -31
leaf_value=-2.1350926427014829 -0.15078092624666262 -2.9481333482916434 -3.8340092396852388 -3.9004988269260368 -3.8288869032629584 -3.8486165021049588 -1.912196752953228 -0.9360172528740871 -0.42905481243358423 -3.3436486631675848 -3.6153570047389043 -4.2751869427647202 -0.9856312300663288 -3.0972531388960372 -1.078285780088144 -3.5972787491635057 -0.55412632794994776 -4.1342106569377126 -0.22460078796042815 -0.15997087525801579 -4.0572347585580113 -0.33830188368942427 -1.4847504254995836 -3.730328414218981 -2.0421974691330176 -0.97570132715323199 -3.4547411319540515 -0.57664466443829898 -0.89403448865299096 -0.60508851125262719
leaf_weight=112.4256880544126 11045.42498382926 66.263930656015873 294.97856837138534 21.357813812792301 280.01206703111529 2976.2147675808519 943.03862741030753 96.311610927805305 497.54119335673749 544.2299315687269 38.675579713657498 12229.689977008849 113.54115052707493 225.97435189411044 406.26195111125708 270.06826960854232 29.362291883677244 639.14553185366094 888.31790088117123 559.66917802020907 57.70702913030982 37.121295651420951 56.908372579142451 960.67401587590575 52.346638636663556 808.37779929675162 155.58306428417563 1137.4770518057048 109.47020672447979 733.73712229542434
leaf_count=4620 20650 3788 22028 1623 20882 223113 34598 1675 3667 35366 2721 1019925 2086 13584 8208 18904 289 51522 2957 1148 4564 207 1607 69771 2055 14693 10452 11702 1813 7961
internal_value=-2.3059 -3.57546 -3.84732 -2.2831 -0.392349 -3.98539 -3.37792 -1.05444 -1.71001 -2.436 -0.244214 -4.18358 -3.04235 -1.1962 -1.79991 -2.8977 -4.21871 -3.83517 -0.671375 -0.759991 -0.910637 -2.60143 -3.43294 -4.22683 -4.26567 -0.582457 -0.70371 -0.920686 -2.39714 -0.698299
internal_weight=36387.9 21874.9 19745.6 1601.49 14513 18144.1 4463.48 2129.34 1466.7 1487.27 13046.3 13680.6 408.52 1129.78 632.236 366.38 13272.1 751.571 1762.96 2000.88 849.923 94.8283 336.92 13242.7 12282 1696.7 1962.2 1402.53 265.053 755.095
internal_count=1618179 1521745 1479728 70497 96434 1409231 293077 42017 47948 69964 48486 1116154 24114 25459 21792 20579 1092040 56142 21438 27836 14355 4771 22489 1091751 1021980 17650 25115 23967 12265 9584
is_linear=0
shrinkage=1


Tree=1
num_leaves=31
num_cat=0
split_feature=20 2 12 31 8 10 7 37 6 12 58 47 44 30 12 6 30 7 31 15 44 12 9 3 7 0 29 9 23 12
split_gain=66176.4 29822.9 28241.8 27549.3 21591.2 19047 15292.1 25087 13476.6 16071.5 15919.1 17375.4 13767.4 13317.1 46635 13557.1 22517.6 15762.9 38497.4 42201.7 15157.5 18885.6 31865.4 16231.8 22097.7 14188.1 14120.9 15108.6 12359.2 12202.4
threshold=0.014143860433250667 0.95301201939582836 2.4012292623519902 0.2104480788111687 0.86251425743103038 -0.28650279343128199 0.50109484791755687 0.59866061806678783 0.25858367979526525 -0.17044620960950849 0.36436982452869421 0.65359908342361461 -0.75469139218330372 -0.3751829713582992 2.4012292623519902 -0.098205596208572374 -1.1710040569305418 -1.5314359068870542 1.0586590766906741 0.37811622023582464 0.20387955754995349 0.96202778816223156 -1.2726991176605222 0.63937547802925121 -1.7214762568473814 -0.02229920960962772 0.90355232357978832 -1.111491799354553 1.1290163993835451 1.0062494874000552
decision_type=2 2 2 2 2 2 2 2 2 2 2 2 2 2 2 2 2 2 2 2 2 2 2 2 2 2 2 2 2 2
left_child=4 2 3 8 13 29 -7 -8 9 -2 11 -10 -13 14 15 17 20 18 26 -20 -17 22 -22 24 -23 -24 -1 -28 -11 -5
right_child=1 -3 -4 5 -6 6 7 -9 10 28 -12 12 -14 -15 -16 16 -18 -19 19 -21 21 23 25 -25 -26 -27 27 -29 -30 -31
leaf_value=0.27730184712519929 0.082691708882775966 0.076874236763476156 0.14164307608247415 0.34739706953005522 0.10903043997264297 0.12425588260148408 0.34248977114832602 1.9872236940952626 0.28930756989507067 0.31786751374745159 -0.050797317719037019 0.56715520269011144 2.1184549528665553 0.11247928990839824 0.12002029688237047 0.22357619731883546 0.16979445130932649 0.29815794523700412 0.17162403326883655 3.3033128163695924 0.21521032063614434 -0.051075257813377406 2.080983895856658 0.33998172171497532 1.5426241915245142 -0.05122234332458863 2.0036250945018033 0.17245844120489259 0.51083716311846394 0.20005436486650199
leaf_weight=201.66247164737433 579.3913085097447 4751.5881533492357 8913.160497341305 2714.6163948094472 294737.92597338185 5236.0981995956972 151.03133674710989 27.388938806951046 37.884776214137673 3652.6941701434553 38.076199470087886 20.849980215542018 45.541333288885653 24624.633874351159 25477.235199498013 1875.2125088488683 7957.3367558065802 1383.0428114142269 17.93042035587132 26.891199226491153 63.698703500442207 32.772564164362848 56.406855911947787 1448.5803550370038 64.674495010636747 9.05433357413858 27.175217896699905 19.239380421116948 1073.6607522014529 2913.0549703845754
leaf_count=2491 39184 132233 13353 136210 83866 228121 4448 310 2246 126593 2574 1062 1088 522676 12781 14449 214399 12321 56 152 2166 1705 717 1765 1187 613 567 1241 29482 28123
internal_value=0.120712 0.191846 0.213351 0.25211 0.11472 0.206715 0.139767 0.59497 0.344116 0.331235 0.824213 1.14372 1.63127 0.141218 0.159523 0.235863 0.216513 0.368725 0.701934 2.05051 0.321222 0.430526 1.01136 0.382002 1.00664 1.78607 0.458278 1.24459 0.361703 0.271128
internal_weight=388179 30155 25403.4 16490.3 358023 11042.2 5414.52 178.42 5448.1 5305.75 142.352 104.276 66.3913 63285.5 38660.9 13183.7 11507.7 1675.94 292.899 44.8216 3550.4 1675.19 129.16 1546.03 97.4471 65.4612 248.077 46.4146 4726.35 5627.67
internal_count=1618179 745027 612794 599441 873152 397212 232879 4758 202229 195259 6970 4396 2150 789286 266610 253829 237001 16828 4507 208 22602 8153 3496 4657 2892 1330 4299 1808 156075 164333
is_linear=0
shrinkage=0.05


Tree=2
num_leaves=31
num_cat=0
split_feature=20 2 19 17 12 23 12 30 26 36 10 8 31 30 12 23 6 9 28 12 6 7 4 31 15 6 178 24 11 12
split_gain=29269.6 20683.2 12493.5 13589.7 12142 15425.5 12962.1 20004.6 14082.6 10945.9 9710.59 9641.61 9339.9 9122.83 19835 11763.1 14485.7 13043.4 13707.3 13142.7 12812.8 9096.36 10837.4 15035.2 41447.1 21904.7 12899.6 14212.1 11248.5 10990.6
threshold=0.021297383122146133 1.919421970844269 0.49269860982894903 9.4890208244323748 2.4012292623519902 2.1740932464599614 0.12256034463644029 -0.60624313354492176 0.27671079337596899 0.55321982502937328 -0.42393024265766138 0.86251425743103038 0.71099567413330089 -0.40516732633113856 2.4012292623519902 1.0023542642593386 -0.2190992012619972 -4.6151812076568595 -0.30431425571441645 1.4578317999839785 0.54265514016151439 -1.96204537153244 0.73966658115386974 1.5611714720726015 1.6533551216125491 0.36883771419525152 -0.14586077630519864 0.45072504878044134 1.6724708676338198 0.47452470660209661
decision_type=2 2 2 2 2 2 2 2 2 2 2 2 2 2 2 2 2 2 2 2 2 2 2 2 2 2 2 2 2 2
left_child=11 2 4 12 5 6 7 9 -8 10 -2 13 -4 14 21 16 -15 18 -18 -19 -20 -1 23 -23 26 28 27 -25 -26 -24
right_child=1 -3 3 -5 -6 -7 8 -9 -10 -11 -12 -13 -14 15 -16 -17 17 19 20 -21 -22 22 29 24 25 -27 -28 -29 -30 -31
leaf_value=0.052298991476005412 2.1432088691731925 -0.0082081215732217397 0.16149865623976423 0.77594822511763761 0.12757890862776503 0.94901756304811813 0.31480515207083642 0.069572822642526913 0.18681659497813019 0.42313561365260099 0.48402117984073717 0.1026146542921733 0.087356260498632654 0.14327778901180141 0.11153462705152709 0.13316604582429817 0.18249862966259789 0.00079132458037806683 2.643586627357795 0.16839156341701395 -0.057606245357160052 0.25371003567814804 0.12651155142223616 2.4140893222068147 -0.061005798199652461 -0.050894502908372975 0.12181504908251861 -0.051343964233460632 2.8151081059197551 0.22244218642544197
leaf_weight=1223.7550948224962 19.5754932500422 1855.2068385072052 10560.021140081808 82.229732910171151 4571.3814109247178 72.988603329285979 4105.9840437807143 2100.1254631523043 4509.8390896292403 153.86847516987473 16.047838803380728 297423.71697966009 7105.9356148149818 4254.8535611862317 26017.911070033908 13800.971254600212 33.806895487010479 7578.2838032916188 14.345323255285622 1383.200128801167 6.3260380979627362 2042.1910081887618 5857.3747829357162 13.925246071070434 3.7716735433787099 10.459570854902266 135.93919500242919 10.074185438454149 34.457767760381103 6090.0146254217252
leaf_count=46936 223 60357 184692 148 5018 1620 89037 110700 104172 5768 595 83939 176300 31662 12756 107715 520 398683 54 5483 288 41351 101048 122 160 622 2339 586 137 45148
internal_value=0.110696 0.154275 0.163328 0.134661 0.196049 0.224559 0.21971 0.113967 0.247811 0.605984 1.39577 0.10651 0.131676 0.12342 0.138167 0.100846 0.0672355 0.0313493 0.802676 0.0266603 1.81694 0.183098 0.194371 0.295014 0.699327 1.97662 0.310488 1.37918 2.53135 0.175411
internal_weight=401089 35153.2 33298 17748.2 15549.8 10978.4 10905.4 2289.62 8615.82 189.492 35.6233 365935 17666 68511.7 41439.9 27071.8 13270.8 9015.96 54.4783 8961.48 20.6714 15422 14198.2 2250.82 208.628 48.689 159.939 23.9994 38.2294 11947.4
internal_count=1618179 738630 678273 361140 317133 312115 310495 117286 193209 6586 818 879549 360992 795610 251205 544405 436690 405028 862 404166 342 238449 191513 45317 3966 919 3047 708 297 146196
is_linear=0
shrinkage=0.05


Tree=3
num_leaves=31
num_cat=0
split_feature=20 3 43 12 80 12 2 17 17 21 12 24 13 144 39 48 62 154 184 22 151 38 125 72 3 23 12 20 8 2
split_gain=12940.9 15354 10921.4 8751.94 10270.7 8233.67 8623.09 5450.84 8451.75 5311.69 10674.2 8865.64 5742.3 5036.72 7768.95 5014.02 5005.84 5604.58 5120.03 5002.22 5937.86 4972.46 6687.36 5442.96 4934.59 4669.21 4643.7 4501.55 6346.67 6298.08
threshold=0.021297383122146133 -0.24175934493541715 1.0670806765556338 2.4012292623519902 1.0448538661003115 1.6911665201187136 2.0247285366058354 9.4890208244323748 3.1461015939712529 0.50564321875572216 2.4012292623519902 1.9256742596626284 0.80115583539009105 0.5912509858608247 0.050560507923364646 2.1547890901565556 0.53131017088890087 -0.011085660662502049 2.7506096363067631 -1.4087859988212583 -0.10057381168007849 0.17119850963354113 1.5255375504493716 -0.0063938065432012072 0.43139357864856726 0.76068896055221569 -0.18453393131494519 -2.8907630443572994 -0.11266282200813292 -0.57932975888252247
decision_type=2 2 2 2 2 2 2 2 2 2 2 2 2 2 2 2 2 2 2 2 2 2 2 2 2 2 2 2 2 2
left_child=27 5 3 4 13 -2 9 8 25 -7 11 12 -11 14 19 -6 18 -18 21 -3 -21 22 -15 -24 -19 -4 -17 -1 29 -29
right_child=1 2 7 -5 15 6 -8 -9 -10 10 -12 -13 -14 16 -16 26 17 24 -20 20 -22 -23 23 -25 -26 -27 -28 28 -30 -31
leaf_value=0.096084303874508503 0.005022690794310402 1.0528500537050993 0.10177723926622502 0.11451718074335422 0.21198123480491282 0.025862333064958082 -0.01579664278187284 0.43053598648227764 0.019044657853641862 0.36314654411878772 0.15147014498027828 0.076383176416367798 0.86575088958500168 0.15144981850106409 0.82754886698325159 0.0013630390798997486 -0.053170289257653117 0.17121157148248964 1.1877916195301774 0.86862030623224973 0.24480112595245843 0.36376709562883858 1.5047462155134481 -0.054487846435140722 1.1188350391564976 0.15538139978575588 0.15567237694754965 0.026563331234187949 0.11369395365223026 0.096402093696373398
leaf_weight=256628.54156459123 3357.9483576789498 23.308679688721895 8434.1441558049992 4159.8347384631634 4183.694075264968 488.32220965437591 858.12566932663321 138.46138524170965 2015.2072742562741 103.31859718076885 1370.2518349718302 100.43254427984357 126.29916059970856 1161.1363400490955 97.597616308368742 569.39412267226726 23.401572284288704 19.300913996063173 13.857611456885932 41.995305021293461 416.20458222832531 451.9983274359256 16.559591412544254 8.4545001406222564 47.663480652496219 7837.4693131707609 3391.928646155633 3958.9407767942175 92659.500241402537 17488.357121504843
leaf_count=63268 172090 218 130781 4910 95913 8156 18897 108 41120 1806 3467 2888 1047 29284 1545 24202 842 764 193 834 10210 9548 180 282 419 114162 64764 106242 460940 249099
internal_value=0.102655 0.129878 0.143608 0.175868 0.200251 0.0590233 0.11854 0.118 0.115634 0.171211 0.212955 0.468216 0.639599 0.293026 0.420774 0.173808 0.250567 0.612928 0.230746 0.338324 0.301976 0.22265 0.168875 0.977741 0.845705 0.127596 0.133492 0.0997582 0.108021 0.0835106
internal_weight=410192 39456.3 33051.6 14626.3 10466.5 6404.7 3046.75 18425.3 18286.8 2188.62 1700.3 330.05 229.618 2321.48 579.106 8145.02 1742.37 90.366 1652.01 481.509 458.2 1638.15 1186.15 25.0141 66.9644 16271.6 3961.32 370735 114107 21447.3
internal_count=1618179 738630 530279 244108 239198 208351 36261 286171 286063 17364 9208 5741 2853 54319 12807 184879 41512 2025 39487 11262 11044 39294 29746 462 1183 244943 88966 879549 816281 355341
is_linear=0
shrinkage=0.05


Tree=4
num_leaves=31
num_cat=0
split_feature=22 20 14 17 12 3 20 8 17 12 17 7 39 18 36 18 18 29 153 38 34 15 144 3 31 165 29 12 5 163
split_gain=6900.18 6533.61 5624 5629.92 6315.76 4607.42 19403.5 11636.7 11232.7 6657.45 11151.1 7070.67 8842.73 7217.86 6315.95 8576.14 5943.8 5413.14 5291.83 5209.23 5375.1 7202.7 4935.93 4830.79 4570.94 4568.88 4926.15 4492.79 5736.79 4446.24
threshold=-0.95472297072410572 -0.38469666242599482 2.7435407638549809 2.7031979560852055 2.4012292623519902 0.17858561873435977 -0.7225971221923827 0.86251425743103038 0.49608574807643896 2.4012292623519902 0.97867718338966381 -0.21996245533227918 -0.26658779382705683 -0.22075413912534711 1.0545933842658999 -0.44056583940982813 -0.37415899336338038 0.46547538042068487 1.0998103022575381 0.29942855238914495 -0.55973210930824269 1.0372001528739931 1.0664963126182558 -0.31139911711215967 0.082875538617372527 1.0766894221305849 0.29048453271389013 1.028094530105591 -0.73813626170158375 2.9316531419754033
decision_type=2 2 2 2 2 2 2 2 2 2 2 2 2 2 2 2 2 2 2 2 2 2 2 2 2 2 2 2 2 2
left_child=1 -1 3 4 24 6 -2 9 23 10 16 -12 -13 14 15 -14 22 18 27 -16 21 -21 -7 -8 -3 -25 -27 28 -18 -30
right_child=5 2 -4 -5 -6 7 8 -9 -10 -11 11 12 13 -15 19 -17 17 -19 -20 20 -22 -23 -24 25 -26 26 -28 -29 29 -31
leaf_value=0.099504449915727544 0.094187911296502794 0.25386103988291941 0.41756593271662734 0.054390425925701237 0.11402746726487643 0.27859491716650847 0.049279161791040506 0.092741934985284172 -0.0079177571924988737 0.10115181648844836 0.049182339560857199 0.079334052922846676 -0.052166524222339639 0.13465905491697358 0.1488972251648244 0.97469348949374701 0.74606295045385962 0.096743584860402118 0.95487223261398957 0.32604195493328231 0.3216087854689515 1.3602350160589676 0.17399666821038814 0.10861203860411617 0.15974408790721931 0.86020290171916458 0.15841636576742302 0.14345602419964265 0.20797178270536396 0.7637704729058028
leaf_weight=19951.013852874748 128512.42883168347 1828.6838165270165 185.91838749218732 1657.1387540511787 5540.1819329950958 1585.9536036588252 8300.1928245034069 186485.40834238008 7399.3542141988873 23558.922153316438 4585.9390331264585 2180.7176792686805 27.321914702653885 766.15955902822316 296.55476254038513 79.49398753978312 53.810419153422117 4312.5855590933934 21.299929047003388 33.883056953549385 194.46428749151528 33.46250008046627 3904.8968665897846 3581.2093445640057 4379.8812612816691 42.337387149222195 61.082745436578989 5349.15504641179 1532.4011177849025 36.84829736687243
leaf_count=32554 309363 18600 263 31618 5495 18798 271041 37674 335565 17113 116626 49643 873 13707 6853 791 570 78010 124 513 3603 215 57137 94819 57806 736 2068 16803 38721 477
internal_value=0.095973 0.117718 0.144454 0.140666 0.152835 0.0940682 0.0871542 0.0984188 0.0405226 0.120222 0.138197 0.090393 0.142715 0.239279 0.35978 0.712038 0.161528 0.140801 0.167969 0.292393 0.454932 0.839909 0.204208 0.0704294 0.187465 0.118074 0.445709 0.165565 0.23843 0.221023
internal_weight=416479 33542.8 13591.8 13405.9 11748.7 382936 147897 235039 19384.2 48553.9 24994.9 8198 3612.06 1431.34 665.181 106.816 16797 11306.1 6993.51 558.365 261.81 67.3456 5490.85 11984.8 6208.57 3684.63 103.42 6972.21 1623.06 1569.25
internal_count=1618179 146336 113782 113519 81901 1471843 1013592 458251 704229 420577 403464 192824 76198 26555 12848 1664 210640 134705 56695 11184 4331 728 75935 368664 76406 97623 2804 56571 39768 39198
is_linear=0
shrinkage=0.05


Tree=5
num_leaves=31
num_cat=0
split_feature=3 20 17 12 17 22 10 21 3 0 17 8 12 22 2 6 19 1 31 29 83 42 12 17 2 4 31 29 63 45
split_gain=4573.32 18944.2 9923.89 7677.5 10254 8190.17 7188.22 6238.74 6191.98 10036.5 9182.36 4864.62 6574.72 4858.61 4650.15 6208.15 7442.04 6051.71 8600.5 10203.5 5693.4 5538.67 5187.04 5103 5847.02 13022.4 17134.2 7080 6450.13 5162.89
threshold=-0.1746043190360069 -0.7225971221923827 0.40239752829074865 2.4012292623519902 0.04361283406615258 -0.35838346183300013 0.38155291974544531 1.0307945609092715 0.63937547802925121 0.364744782447815 -0.80384850502014149 0.86251425743103038 0.71768397092819225 -1.5718340277671812 -0.41975224018096918 -0.059080071747303002 2.0820086002349858 -4.973186492919921 0.67140138149261486 -0.89345660805702198 -0.55453616380691517 -2.4402364492416377 -4.5010347366332999 -1.5988070368766782 0.3457659929990769 2.2033283710479741 1.1352359056472781 1.0286114215850832 2.602346777915955 1.9682551622390749
decision_type=2 2 2 2 2 2 2 2 2 2 2 2 2 2 2 2 2 2 2 2 2 2 2 2 2 2 2 2 2 2
left_child=1 14 7 4 5 8 13 -3 10 -10 11 12 -2 -6 17 16 23 18 -1 -20 -21 -22 -19 -16 -25 27 -27 28 29 -26
right_child=3 2 -4 -5 6 -7 -8 -9 9 -11 -12 -13 -14 -15 15 -17 -18 22 19 20 21 -23 -24 24 25 26 -28 -29 -30 -31
leaf_value=0.087395206119980917 0.13298358280911829 0.047108389488091831 -0.013259240435762393 0.089453453626516827 0.18710853594038157 0.11482488826281566 0.01570197431423177 0.15062566280284292 0.12793571747318294 0.3325292494483183 0.15932709804361189 0.13437949115335965 0.5188204667590034 0.095554149625888596 0.081427552835179912 0.088489002620013579 1.1454352978958795 0.092102349032581354 1.1167902801714891 1.5741752210725035 2.0211631890599082 0.17664724022464579 -0.0042841582854225915 0.12245013709928634 0.18841144660968168 -0.052825713584861246 2.1747776985408769 1.7942161810502115 1.6605164133010988 1.3959201292185024
leaf_weight=2443.6229532826692 139.22930095344782 8718.4774428000674 6780.8158599250019 211440.06923426129 1512.2283730031922 16398.468860270455 2762.4414303246886 1747.1759957838804 5193.9012449607253 677.63969761319458 1091.0035079969093 162.83435639739037 533.41058790497482 34704.877610269934 4285.070654604584 107880.51343935169 17.895582165569067 2097.5198114011437 40.329065471887589 7.9172054305672637 4.145363373681902 223.47959543392062 4172.3059787638485 5470.8769397679716 2047.1904522012919 15.622103191912172 19.293274780735373 6.9789366591721764 7.5214763171970835 8.8906591180711967
leaf_count=23701 3882 283071 309796 51302 5496 96061 79334 11199 16003 5911 27946 715 6420 396951 9694 134248 116 16158 459 85 18 6129 93369 29821 9207 725 82 69 73 138
internal_value=0.0902218 0.0830713 0.0338605 0.0940233 0.109318 0.134885 0.093447 0.06439 0.177069 0.151548 0.254852 0.379594 0.438956 0.099377 0.0896633 0.0922666 0.126573 0.0549797 0.117271 0.381909 0.256084 0.210238 0.0279612 0.125036 0.149699 0.220503 1.17809 0.204356 0.198979 0.193633
internal_weight=420612 145996 17246.5 274616 63176 24196.5 38979.5 10465.7 7798.02 5871.54 1926.48 835.474 672.64 36217.1 128749 119760 11879.3 8989.32 2719.49 275.871 235.542 227.625 6269.83 11861.4 7576.37 2105.5 34.9154 2070.58 2063.6 2056.08
internal_count=1618179 928158 604066 690021 638719 156938 481781 294270 60877 21914 38963 11017 10302 402447 324092 184173 49925 139919 30392 6691 6232 6147 109527 49809 40115 10294 807 9487 9418 9345
is_linear=0
shrinkage=0.05


Tree=6
num_leaves=31
num_cat=0
split_feature=8 18 6 12 12 15 49 19 103 12 12 27 13 31 116 2 92 8 54 4 8 8 3 20 0 36 27 23 12 31
split_gain=4688.72 7100.81 10079.1 9208.59 7977.46 10496.2 8858.33 7682.75 4585.44 4298.05 4232.42 4217.02 4205.6 5222.83 5706.88 4401.87 4184.49 3827.77 3653.36 3604.03 3601.21 3354.93 4327.52 9327.62 5295.12 6970.59 9387.52 4565.83 9303.92 17792.7
threshold=-0.15063270181417462 -0.9513917565345763 -0.1992801949381828 -3.603772640228271 0.19077918678522113 1.4559711217880251 18.005979537963871 0.88527309894561779 -2.2405701875686641 1.6911665201187136 2.4012292623519902 0.81757125258445751 0.090346381068229689 0.055786654353141792 1.1024184226989748 -0.90903237462043751 0.022950233891606334 -0.73005208373069752 0.63386443257331859 3.5222905874252324 -1.3520790338516233 0.86251425743103038 -0.15803045779466626 -0.7225971221923827 -0.35300789773464197 0.8179246485233308 -0.61884352564811695 0.77075016498565685 -3.5148340463638301 1.4153450131416323
decision_type=2 2 2 2 2 2 2 2 2 2 2 2 2 2 2 2 2 2 2 2 2 2 2 2 2 2 2 2 2 2
left_child=1 3 12 -1 5 -4 8 17 16 -5 -11 -10 13 -3 18 -14 -7 19 -15 -6 -21 22 23 27 25 26 -25 -2 -29 -30
right_child=21 2 4 9 7 6 -8 -9 11 10 -12 -13 15 14 -16 -17 -18 -19 -20 20 -22 -23 -24 24 -26 -27 -28 28 29 -31
leaf_value=0.90660090795333059 0.042974002317320154 0.065898530437803512 -0.014916989937201836 -0.0028848229318418892 -0.0057028854010764685 -0.061877102301805167 2.0042223877915832 -0.021534437554604588 0.10815478740213225 0.23934284727731903 0.10443494550408493 1.4833675812841756 -0.0016269498332667385 0.21147745741678642 0.98823037448673101 0.10421067405827861 1.962154563531793 0.10154035482991278 1.1329483668390186 0.44181076088162458 0.085416088200409995 0.084428720794986367 0.10342454195486184 1.6591927572240288 0.021303738905404324 0.047241373025852518 0.26829745069241789 0.088067366672084715 0.094554090966647228 0.32161630221028048
leaf_weight=35.835158973932266 2943.2661332506686 731.39479306060821 8488.893409925513 862.65391205158085 1889.876396747306 4.2486754953861219 6.26925079897046 2076.3094195444137 1474.4646436283365 626.22410262189806 8117.1551563758403 5.5956600848585358 1197.4419742785394 1100.085674867034 24.744233151897788 5471.0131207285449 6.4003582838922739 7813.0779106784612 10.862663727253674 77.88274185359478 788.36395763419569 298521.77220433764 57506.357578566298 12.55611810274422 7504.2767872987315 699.26214156113565 358.43346680793911 10910.734460521489 2291.3554354030639 1383.8063126727939
leaf_count=343 51848 7986 361223 31926 41295 152 25 57771 20268 6601 5574 60 13790 3227 173 24227 42 73115 63 415 248 96434 461932 129 283661 25456 9547 6642 21245 12761
internal_value=0.0851877 0.069078 0.0574774 0.106576 0.0400154 0.0066096 0.12868 0.0663952 0.120792 0.103592 0.114097 0.113354 0.103777 0.170105 0.237215 0.0852056 1.15462 0.0836689 0.220487 0.0330067 0.117459 0.0869081 0.0957606 0.0788769 0.0361423 0.140186 0.315372 0.0997809 0.111244 0.18005
internal_weight=422941 40808.8 31166.9 9641.87 22631.4 9985.87 1496.98 12645.5 1490.71 9606.03 8743.38 1480.06 8535.54 1867.09 1135.69 6668.46 10.649 10569.2 1110.95 2756.12 866.247 382132 83610 26103.7 8574.53 1070.25 370.99 17529.2 14585.9 3675.16
internal_count=1618179 648524 604080 44444 554614 381770 20547 172844 20522 44101 12175 20328 49466 11449 3463 38017 194 115073 3290 41958 663 969655 873221 411289 318793 35132 9676 92496 40648 34006
is_linear=0
shrinkage=0.05


Tree=7
num_leaves=31
num_cat=0
split_feature=8 18 6 12 15 19 31 13 8 4 23 0 23 3 13 26 17 12 9 20 17 12 8 29 10 18 32 71 10 38
split_gain=5124.61 6258.03 8332.81 7283.97 8478.9 6510.04 3422.81 4234.67 3194.23 3111.71 3059.39 10411.7 6238.01 6838.06 4290.21 7232.22 5274.19 3976.14 3831.3 3465.44 3316.07 3243.17 2962.96 4923.59 4917.64 5838.31 8772.28 4581.92 4451.61 3843.8
threshold=-0.14261031150817868 -0.9513917565345763 -0.1992801949381828 0.19077918678522113 1.4559711217880251 0.88527309894561779 0.25080195069313055 0.090346381068229689 -0.73005208373069752 3.5222905874252324 1.0711725354194643 -0.24071300029754636 0.77589064836502086 -0.51338309049606312 0.48395645618438726 1.021451532840729 0.57578319311141979 -2.5431847572326656 -2.0416946411132808 -0.96650680899620045 0.35687799751758581 -4.8332509994506827 0.86251425743103038 0.46547538042068487 -0.68787279725074757 -0.3011068701744079 -0.20249743014574048 -0.49634206295013422 -0.44514411687850947 -0.047391096130013459
decision_type=2 2 2 2 2 2 2 2 2 2 2 2 2 2 2 2 2 2 2 2 2 2 2 2 2 2 2 2 2 2
left_child=1 -1 6 4 -4 8 -3 -8 9 -5 11 22 13 18 15 16 21 -18 -13 -17 -14 -12 23 24 -2 26 27 -26 29 -29
right_child=10 2 3 5 -6 -7 7 -9 -10 -11 14 12 20 -15 -16 19 17 -19 -20 -21 -22 -23 -24 -25 25 -27 -28 28 -30 -31
leaf_value=0.098928165041160657 0.089798021078698095 0.047934310661764928 -0.014302408501255266 -0.0054366438654873221 0.10895612865109433 -0.019137300477826042 0.20189008741772538 0.095493775155524777 0.092918759308944346 0.1078943082151757 1.2725799046091546 0.071433305410633294 0.095730310714176703 0.05906474537389457 0.090028764414312734 1.3971076638345479 1.6832405567306119 -0.051700032221380754 -0.018050180401881444 -0.055380081896599591 0.049556894907151476 0.15013302748585561 0.081829814647764551 0.060937508352850049 0.21764059615794415 0.11710829659575694 0.1234133868622634 -0.053402652453136537 0.3121276149953815 0.72534910298962008
leaf_weight=9917.3662290135399 14959.616542737931 2712.3126078061759 8478.9001437565312 1883.4733295189217 1670.0391343170777 2068.1053573153913 1149.6060910224915 5014.4825233574957 8348.113923760131 892.77219904586673 6.4723609536886206 1488.6642142822966 10415.351901385933 13270.451618918218 75448.017946427688 17.789057936519388 9.9035979956388456 4.9545393958687773 6088.5187612092122 5.3389893248677245 6205.103287992999 1128.3730972427875 235059.48976945132 7038.9874085569754 372.73835680540651 8603.439934710972 1089.7912751315162 17.589568689465523 221.88305295445025 159.79624689556658
leaf_count=44587 26927 34207 364719 41295 20770 58343 2209 13259 75135 663 5 7063 76050 172758 160162 81 5 185 204210 168 82304 6568 46948 86425 3590 73612 12439 483 2154 855
internal_value=0.0807449 0.0641972 0.0535063 0.0378253 0.00598016 0.0623237 0.094741 0.115337 0.077468 0.0310078 0.0825719 0.080328 0.0556428 0.0374267 0.0915039 0.186399 0.168788 1.10471 -0.000469654 1.06181 0.0784919 0.156535 0.0837853 0.0979446 0.10819 0.134481 0.214761 0.343711 0.461405 0.648128
internal_weight=423747 42135.2 32217.8 23341.4 10148.9 13192.5 8876.4 6164.09 11124.4 2776.25 381612 304991 37468.1 20847.6 76620.8 1172.83 1149.7 14.8581 7577.18 23.128 16620.5 1134.85 267523 32463.8 25424.9 10465.2 1861.8 772.007 399.269 177.386
internal_count=1618179 655187 610600 560925 385489 175436 49675 15468 117093 41958 962992 795818 542385 384031 167174 7012 6763 190 211273 249 158354 6573 253433 206485 120060 93133 19521 7082 3492 1338
is_linear=0
shrinkage=0.05


Tree=8
num_leaves=31
num_cat=0
split_feature=29 23 12 2 26 12 6 21 2 2 8 27 24 1 12 28 115 156 167 2 144 50 12 159 152 17 18 4 19 23
split_gain=5921 9153.71 8810.57 7205.4 4750.05 5319.08 6238.13 4165.47 4408.58 3528.17 3209.02 4738.45 3996.5 2643.83 3405.37 5207.81 4901.39 2810.27 2694.62 2622.71 2462.15 2440.87 2282.49 3440.8 2245.27 2212.02 2792.26 2111 2100.38 2079.63
threshold=0.592708319425583 1.0711725354194643 0.37272645533084875 0.41289515793323522 1.0389901399612429 1.1427344679832461 -0.27082215249538416 -2.791447520256042 -0.48185507953166956 -0.81330028176307667 -1.5459825396537779 -1.5189591646194456 1.7544528245925906 0.61780837178230297 -0.81048914790153492 -0.62181565165519703 1.833468556404114 -1.1835579276084898 -3.1438444852828975 2.0247285366058354 -0.2603055983781814 0.058022037148475654 0.50500419735908519 0.86203932762146007 1.0093817114830019 11.63476610183716 -0.60403549671173085 0.21110200881958011 0.58832311630249035 1.394502639770508
decision_type=2 2 2 2 2 2 2 2 2 2 2 2 2 2 2 2 2 2 2 2 2 2 2 2 2 2 2 2 2 2
left_child=4 2 3 7 10 6 -6 8 -2 22 11 28 19 14 15 21 17 -17 -16 -13 -10 -5 23 -4 -25 -12 -27 -3 -1 -29
right_child=1 27 9 13 5 -7 -8 -9 20 -11 25 12 -14 -15 18 16 -18 -19 -20 -21 -22 -23 -24 24 -26 26 -28 29 -30 -31
leaf_value=0.32917152564606977 0.012347379762998626 0.20027266023609702 0.068083868005874237 -0.055974496256246009 0.12547895988724148 0.076410951292130741 -0.017689898703464303 -0.010664146393212417 1.7057598933046139 0.054246529299847357 0.080705865698885396 0.07826752312278859 -0.044744931793274816 0.078407451068124648 1.7434145538206609 1.2880467924849217 1.2445193930846885 0.22509745278532614 0.055981028143179803 -0.054373422932456505 0.11770523606190741 2.1080745511361028 0.094816727840196513 0.36703450742947658 1.011587451274188 0.81495713976740713 0.18630141966107566 0.070492569617882472 0.1159829512907328 0.1028395595991841
leaf_weight=155.41738153062761 2801.7453884258866 414.48393043130636 70.912848345935345 1.6669928655028332 935.10145867429674 7014.7186005935073 4082.9291061218828 9790.0290873153135 2.4449505470693103 14193.926240891218 349514.62142352108 2310.9448776403442 1491.0583468312398 934.4918797519058 2.3934885542839757 6.3976553194224826 13.238606959581373 221.66199369356036 204.74115918949246 444.33556712698191 1419.8266088133678 5.967811519280076 6161.6440243404359 40.864323830232024 20.184896348044276 19.742644626647234 167.69974559918046 10191.356254423037 450.21422328054905 9696.4684787234291
leaf_count=569 68426 2142 1274 55 3227 27682 145803 315992 39 155007 607929 33529 62682 11009 30 42 78 1480 4277 17134 14432 27 12064 466 91 80 460 93769 4025 34359
internal_value=0.0768725 0.0617594 0.0465821 0.0180133 0.0791891 0.0482941 0.00898937 0.00724155 0.0487417 0.068063 0.0802377 0.0398541 0.0211935 0.126571 0.225259 0.349889 0.30921 0.254916 0.0754797 0.0568769 0.120435 1.63557 0.0992233 0.304977 0.580145 0.080798 0.252516 0.0885912 0.170691 0.0862636
internal_weight=422781 56194.4 35892.1 15404.6 366587 12032.7 5018.03 14014 4224.02 20487.5 354554 4851.97 4246.34 1390.56 456.068 248.933 241.298 228.06 207.135 2755.28 1422.27 7.6348 6293.61 131.962 61.0492 349702 187.442 20302.3 605.632 19887.8
internal_count=1618179 715059 584789 415887 903120 176712 149030 398889 82897 168902 726408 117939 113345 16998 5989 1682 1600 1522 4307 50663 14471 82 13895 1831 557 608469 540 130270 4594 128128
is_linear=0
shrinkage=0.05


Tree=9
num_leaves=31
num_cat=0
split_feature=20 12 30 7 17 36 38 3 15 8 71 13 2 26 9 182 21 10 19 1 19 63 101 50 163 73 148 5 12 30
split_gain=7594.35 15053.7 10860.1 13968.9 8421.33 7050.79 7151.31 6666.95 4731.21 4662.6 4621.75 4537.96 4146.76 5176.58 4095.85 3887.9 3807.38 3497.78 3438.8 3320.53 2972.84 4426.62 3891.97 3396.6 3297.97 3373.8 5312.09 2914.35 2880.33 2873.21
threshold=-0.91138276457786549 0.19077918678522113 -0.40516732633113856 -0.40742777287960047 -0.29713314771652216 1.4081259965896609 0.096694331616163268 0.059143921360373504 0.86909306049346935 0.52311593294143688 -0.40775406360626215 0.62807804346084606 0.16387652605772021 0.50625231862068187 -0.59434551000595082 0.13480696082115176 -0.63838747143745411 0.21119142323732379 2.2905402183532719 0.6254107952117921 -0.3960727304220199 3.1779670715332036 1.3166470527648928 1.3160585761070254 -8.8683328628540021 0.50393864512443554 0.81354776024818432 0.67266580462455761 -0.42511148750782007 -0.25646924972534174
decision_type=2 2 2 2 2 2 2 2 2 2 2 2 2 2 2 2 2 2 2 2 2 2 2 2 2 2 2 2 2 2
left_child=-1 2 3 16 11 6 14 -6 20 -7 -8 -3 28 18 -5 -12 -2 -13 -14 -9 21 22 23 24 -4 -26 -27 -11 -10 -30
right_child=1 4 8 5 7 9 10 19 12 27 15 17 13 -15 -16 -17 -18 -19 -20 -21 -22 -23 -24 -25 25 26 -28 -29 29 -31
leaf_value=0.076963024273139446 0.096958307475119243 0.053478080987153377 2.1206330679708114 0.036900698351979802 0.004417977357036142 0.010004200801532661 0.18005935494602734 0.087489536353382497 -0.014015194130069034 0.16705158674102627 0.32363711421528873 0.09109784160096919 0.109820547000528 -0.015973822686887861 0.24350723781579028 0.67055503501171365 -0.02104502104313918 0.13606750079840529 0.57139713416892934 0.052418304269280791 -0.023544802284456011 2.8970778755657225 1.4007006860884326 2.2088248965860373 0.0384529269232309 -0.053095804566592131 2.6784622869896917 1.2054101426354933 0.17266223809781275 0.016845305889961814
leaf_weight=327308.49143500254 900.14336550422013 6452.0599587429315 1.9779205722734321 721.4528809953481 5326.1322042457759 1203.5226784814149 577.82410923950374 10651.487555167638 4220.9935005242005 617.22909707762301 541.24550434481353 21405.118430167437 2284.0968987047672 1045.6519805770367 359.37114596832544 94.925181665457785 2840.9810850052163 5418.7221209723502 41.077165005728602 18421.43760066852 8784.5188987320289 1.4570770747959603 5.9172595748677841 1.9007834643125523 238.45531174913049 4.0962513396516433 3.1474494663998485 6.8323262035846701 453.36285026930273 851.57030333485454
leaf_count=298451 12993 83086 21 16633 158056 30344 8447 113768 131671 5102 4789 38196 25135 36998 5310 794 93110 30158 246 153952 330142 11 127 24 12383 206 11 30 7754 20231
internal_value=0.0733733 0.060804 0.028308 0.0773021 0.0731934 0.140787 0.199142 0.0558459 0.00683064 0.0675127 0.282425 0.0911265 0.032717 0.0764231 0.105597 0.375402 0.00734749 0.100182 0.117975 0.0652674 -0.0186413 0.148995 0.133323 0.103275 0.0871158 0.0707456 1.13379 0.17842 0.0060561 0.0709796
internal_weight=420785 93476.7 25801.8 7863.53 67675 4122.4 2294.82 34399.1 17938.2 1827.58 1213.99 33275.9 8896.75 3370.83 1080.82 636.171 3741.12 26823.8 2325.17 29072.9 9041.47 256.952 255.495 249.578 247.677 245.699 7.2437 624.061 5525.93 1304.93
internal_count=1618179 1319728 742512 177552 577216 71449 35973 425776 564960 35476 14030 151440 222035 62379 21943 5583 106103 68354 25381 267720 342925 12783 12772 12645 12621 12600 217 5132 159656 27985
is_linear=0
shrinkage=0.05


Tree=10
num_leaves=31
num_cat=0
split_feature=20 12 30 7 17 3 62 15 38 5 37 32 2 26 13 21 82 36 68 19 15 23 12 15 7 27 0 12 172 12
split_gain=9840.61 13133.4 7976.39 8451.77 7636.12 6232.24 6089.26 4941.45 4886.27 5872.21 4859.14 3746.37 3643.9 4267.66 3482.7 3430.55 3409.83 3498.1 3670.31 3166.23 3281.59 5469.58 3712.5 4973.32 3753.09 3457.3 3053.14 2941.21 2838.65 2798.26
threshold=-0.91138276457786549 0.12256034463644029 -0.40516732633113856 -0.44633293151855463 -0.45464484393596644 -0.72044327855110157 -0.11164955049753188 0.86909306049346935 0.028986784629523758 -0.13839673250913617 -0.15334603935480115 -0.15554768592119214 0.16387652605772021 0.50625231862068187 0.62807804346084606 -0.57604506611824025 0.080597579479217543 1.3200107216835024 1.8011550307273867 0.93667730689048778 0.64903965592384349 0.56635448336601268 1.0062494874000552 0.10605921596288682 -0.97204598784446705 0.62854322791099559 0.41739046573638922 -0.74525442719459523 -1.4229353070259092 -0.42511148750782007
decision_type=2 2 2 2 2 2 2 2 2 2 2 2 2 2 2 2 2 2 2 2 2 2 2 2 2 2 2 2 2 2
left_child=-1 2 3 15 14 -6 8 -4 -5 11 -11 -10 29 -14 -3 -2 17 18 27 20 21 -7 23 24 -23 28 -24 -12 -25 -9
right_child=1 4 7 6 5 19 -8 12 9 10 16 -13 13 -15 -16 -17 -18 -19 -20 -21 -22 22 26 25 -26 -27 -28 -29 -30 -31
leaf_value=0.074348527170152806 0.085244290812979309 0.050836008061123129 -0.022143992925205996 0.025706977279998142 -0.022212752609066341 0.046465899842834509 0.012628022346136712 -0.013457686974516107 0.17430427044565028 0.054450533476348317 0.77527252993808604 0.0094716364618213297 0.10827477941779118 -0.014362730113978242 0.09345647552507251 -0.025530719966262511 0.14042829478201399 0.1996020045975653 0.15733842228872513 0.033373202048521476 0.040583871540670058 0.089957409261266344 0.059793769989545678 0.16367976377240256 0.26863099861538658 0.34306183706034976 0.14670459225065147 0.4338081235059843 0.056522809309876687 0.071543228889172583
leaf_weight=322011.67772391438 988.14669525530189 5900.0254663787782 8237.4608589885756 672.64275151770562 2609.9371737176552 7897.5056383050978 1151.7391353109851 4177.2045139754191 858.68103830609471 236.98004332464188 77.811593500897288 575.92376365978271 2408.3586870301515 1005.5820202492177 25548.778464311734 2387.7358615081757 234.07452794723213 234.63580093439668 97.551969831809402 9807.9588939798996 8425.6481965733692 421.50320406444371 5166.4678139965981 886.55292500648648 970.88039991818368 140.30022788234055 1256.208518596366 332.71291757933795 2040.5184222282842 1260.3788008643314
leaf_count=298451 13430 70536 326152 14943 90163 70723 26327 131671 5728 4332 602 12965 25070 35841 58043 82409 2080 2737 691 117775 124149 8307 11964 10861 9447 847 5623 1336 29757 25219
internal_value=0.0701596 0.0561101 0.0248909 0.0666168 0.0670643 0.0524633 0.111694 0.00572693 0.14605 0.176615 0.257558 0.108132 0.0316643 0.0721517 0.0854606 0.00689397 0.306835 0.359279 0.43302 0.0577289 0.0665094 0.078141 0.101128 0.136174 0.214543 0.1006 0.0767926 0.49853 0.0889786 0.0062447
internal_weight=418022 96009.9 24937.6 7848.64 71072.3 39623.5 4472.75 17089 3321.01 2648.37 1213.77 1434.6 8851.52 3413.94 31448.8 3375.88 976.787 742.712 508.076 37013.5 27205.6 18779.9 10882.4 4459.76 1392.38 3067.37 6422.68 410.525 2927.07 5437.58
internal_count=1618179 1319728 711533 167580 608195 479616 71741 543953 45414 30471 11778 18693 217801 60911 128579 95839 7446 5366 2629 389453 271678 147529 76806 59219 17754 41465 17587 1938 40618 156890
is_linear=0
shrinkage=0.05


Tree=11
num_leaves=31
num_cat=0
split_feature=20 12 17 30 0 3 5 12 39 13 21 56 2 12 30 44 44 18 34 23 1 11 29 23 26 84 152 10 3 23
split_gain=11921.3 11636.8 6764.58 6647.53 7833.5 4441.73 4339.83 4223.61 4186.46 4048.71 3712.13 3472.74 3455.63 5164.7 3201.32 2943.66 4018.29 2828.91 2570.18 2499.92 2415.09 2408.85 2327.62 4366.99 4029.42 2298.5 2365.78 2268.63 2238.19 2591.57
threshold=-0.91138276457786549 0.37272645533084875 0.029048832133412365 -0.33425331115722651 0.022750422358512882 1.293323874473572 -0.12240616604685782 1.0062494874000552 -0.63297030329704274 0.62807804346084606 -0.63838747143745411 0.58094176650047313 0.18149490654468539 -2.7409672737121578 0.015522853937000038 -1.039126396179199 0.4982204288244248 0.21282010525465014 0.25694814324378973 0.53319609165191661 0.85954236984252941 0.21112990379333499 0.72797599434852611 1.2193525433540346 -0.73820459842681874 0.45516963303089147 0.54779651761055004 -1.3461012840270994 -5.2552380561828604 1.5090111494064333
decision_type=2 2 2 2 2 2 2 2 2 2 2 2 2 2 2 2 2 2 2 2 2 2 2 2 2 2 2 2 2 2
left_child=22 3 9 4 6 -4 11 14 -8 27 -6 -2 -5 -14 17 -10 21 -7 -13 -11 -18 -17 -1 24 -24 -19 -27 -3 29 -25
right_child=1 2 5 12 10 7 8 -9 15 19 -12 18 13 -15 -16 16 20 25 -20 -21 -22 -23 23 28 -26 26 -28 -29 -30 -31
leaf_value=0.072817453107227495 0.0083525322858867528 -0.03376564407167508 0.023485513344679826 -0.0050977816040266109 0.077917138841523001 0.10801707329231379 0.051566919295640924 0.049741472643283463 0.059701695989146125 0.067624137868390929 -0.020114997656595204 0.12730525230879383 0.11708396446293995 0.0058424990731245985 0.020646072727752516 0.58627023569454872 -0.0086464856097187414 0.15866788142636806 -0.0081517198455343075 0.096503471514577749 0.42810514399343458 0.22227450735932136 0.072618202035460197 -0.12065699835293718 0.0015954513114571226 0.44523686104388793 0.11378796573182809 0.054426997762524104 0.089056013586709989 0.89146837829452308
leaf_weight=303670.96441271156 2179.7058214033023 807.93464130628854 13042.856189286336 13761.270829622634 1310.136933920905 1676.8819756098092 1174.2316559981555 11455.98296196945 490.17731549218297 12369.197626287118 3672.7086351178586 1648.2495794650167 1612.078680424951 2957.8333697067574 685.60667362809181 46.992558695375919 288.54755617491901 443.69941329397261 444.66107868775725 19011.02439162042 35.552177177742124 1386.8374287961051 3314.9202045165002 9.7081458531320113 5023.2785183321685 180.70212804153562 76.683569379150867 7481.3282839832827 4246.9780708868057 18.146872902289033
leaf_count=200876 50718 15984 231866 437965 19217 17814 23220 38677 8983 29509 127100 19448 4390 105028 9896 271 6584 4904 10077 54644 221 10434 13914 72 79672 1036 930 90812 3901 16
internal_value=0.0672176 0.0520034 0.0636902 0.0266647 0.0545022 0.0446632 0.0861294 0.0636869 0.128085 0.0769103 0.00566054 0.0525234 0.00741238 0.045084 0.115835 0.168052 0.198264 0.143279 0.098526 0.0851201 0.0392631 0.234204 0.0719433 0.0508968 0.0298311 0.227621 0.346487 0.0458311 0.091986 0.538718
internal_weight=414525 98240.9 67231.9 31009 12677.8 27562.4 7694.96 14519.6 3422.34 39669.5 4982.85 4272.62 18331.2 4569.91 3063.57 2248.11 1757.93 2377.97 2092.91 31380.2 324.1 1433.83 316284 12613 8338.2 701.085 257.386 8289.26 4274.83 27.855
internal_count=1618179 1319728 496072 823656 276273 305123 129956 73257 49713 190949 146317 80243 547383 109418 34580 26493 17510 24684 29525 84153 6805 10705 298451 97575 93586 6870 1966 106796 3989 88
is_linear=0
shrinkage=0.05


Tree=12
num_leaves=31
num_cat=0
split_feature=20 3 17 1 3 22 25 10 3 1 142 19 15 23 8 56 21 96 29 2 24 24 132 71 90 10 9 38 45 35
split_gain=13846.8 10219.7 7208.5 6439.81 3831.74 3510.98 2842.82 2442.51 3773.36 3303.16 3793.4 2976.22 2484.89 2398.57 3406.97 2765.35 2640.72 6917.13 2547.87 5017.16 4872.17 2992.8 2743.74 2975.94 3227.62 3015.47 4781.12 2388.66 2835.48 3371.51
threshold=-0.94850403070449818 0.23775613307952884 0.49608574807643896 0.6254107952117921 1.293323874473572 -1.0096472501754759 -0.52268582582473744 2.0208872556686406 -4.1583204269409171 -6.2579674720764151 -0.88287428021430958 0.83810970187187206 -0.2452498376369476 1.7025469541549685 -0.29341334104537958 -0.047213120386004441 -1.264578580856323 1.7059912681579592 0.39783142507076269 0.38235563039779669 0.45656289160251623 0.15060554444789889 -1.3705232143402097 -0.59096038341522206 0.029080137610435489 -0.98792552947998036 -0.48032738268375391 0.076521344482898726 0.50112590193748485 -1.3726995587348936
decision_type=2 2 2 2 2 2 2 2 2 2 2 2 2 2 2 2 2 2 2 2 2 2 2 2 2 2 2 2 2 2
left_child=7 2 5 6 -5 -2 -3 -1 12 10 -10 -11 -9 14 -7 16 17 -16 20 -20 -17 -21 -22 -24 -25 26 -26 -23 29 -29
right_child=1 3 -4 4 -6 13 -8 8 9 11 -12 -13 -14 -15 15 18 -18 -19 19 21 22 27 23 24 25 -27 -28 28 -30 -31
leaf_value=0.070653998274719451 0.10005055630290426 -0.0033063404672604713 -0.004723487219086572 0.012452979606799135 0.05350845366452342 -0.018805560607039595 0.074453539334651334 0.0028327192369389923 2.1063465401135284 -0.032686372615613905 -0.060367165713889864 0.087934493440190595 0.078919483514185484 0.074450147190146324 0.083970333535673805 0.048316967673143411 -0.0088023082733963056 1.0743329906221055 0.010066275235261362 0.035573499866012701 0.87769866131667329 0.074255658240561059 0.068518534055375488 0.090769499022118852 0.50306564986447388 0.28327736377532947 2.0258513612075411 -0.056343965329226635 0.13777300804845943 0.4657626180204017
leaf_weight=298006.28123586997 2423.2955638850108 1210.8459472553805 12073.858017830178 8313.457653876394 17963.027992527932 3101.3810934145004 40128.141049901024 1311.6644532680511 3.9815951585769653 2241.4339420869946 4.1004138793796283 662.56802566722035 5899.2755256388336 3416.0319329481572 246.26052999868989 2355.0572443585843 3471.9399415254593 18.990643963217735 4824.1462893318385 639.62383046559989 13.817992884665726 319.23887499421835 433.51625728234649 225.97355373576283 30.557138986885548 340.8922868128866 6.2005110885947934 36.989096676930785 259.82725386694074 188.46607630886137
leaf_count=153966 18069 18915 415130 112821 108908 88401 236825 26714 2 56798 108 6672 41539 28502 2280 47501 92225 117 131088 9857 71 3524 6598 3370 433 3032 15 944 2622 1132
internal_value=0.0645468 0.0485829 0.026407 0.0598736 0.0405192 0.0432226 0.0721759 0.0698335 0.0456801 -0.00235662 1.00706 -0.00516589 0.0650794 0.0363125 0.0284229 0.0393444 0.00281489 0.154875 0.0534557 0.0345411 0.0882654 0.116299 0.177785 0.168459 0.240236 0.329672 0.759939 0.180479 0.250356 0.380104
internal_weight=410171 102042 34426.1 67615.5 26276.5 22352.2 41339 308129 10123 2912.08 8.08201 2904 7210.94 19928.9 16512.9 13411.5 3737.19 265.251 9674.31 6268.29 3406.01 1444.15 1050.96 1037.14 603.623 377.65 36.7577 804.521 485.282 225.455
internal_count=1618179 1332380 854911 477469 221729 439781 255740 285799 131833 63580 110 63470 68253 421712 393210 304809 94622 2397 210187 149167 61020 18079 13519 13448 6850 3480 448 8222 4698 2076
is_linear=0
shrinkage=0.05


Tree=13
num_leaves=31
num_cat=0
split_feature=20 17 3 17 12 9 25 13 10 3 0 10 29 19 26 39 68 0 30 26 28 2 37 8 167 18 24 177 24 11
split_gain=15864.1 9659.22 6966.41 4566.77 3824.58 3819.67 2976.49 2947.5 2649.58 3341.85 2602.91 2777.43 2506.06 2487.38 2372.28 2236.35 2971.04 2965.95 2822.89 2586.48 2565.75 2961.32 2499.37 2229.69 2746.78 3440.81 2842.29 2187.97 3089.29 2182.88
threshold=-0.94850403070449818 -0.45464484393596644 0.99636316299438488 1.6240614652633669 0.37272645533084875 -1.3233851790428159 -0.42130875587463373 0.62807804346084606 2.0208872556686406 -4.1583204269409171 1.383651912212372 -0.85354214906692494 1.1199196577072146 0.83810970187187206 0.08659814298152925 -0.70372512936592091 0.83063554763793956 0.090610992163419737 -0.27216757833957667 1.1125292778015139 -1.1749424934387205 -0.39241605997085566 0.50232473015785228 0.43714253604412084 0.32029561698436743 -0.86811363697051991 0.31926684081554418 -2.9460024833679195 0.12164761498570444 2.1293132305145268
decision_type=2 2 2 2 2 2 2 2 2 2 2 2 2 2 2 2 2 2 2 2 2 2 2 2 2 2 2 2 2 2
left_child=8 4 3 6 5 10 -3 -6 27 -10 -2 -12 14 -11 -4 -8 17 18 19 22 21 -18 -17 29 -25 26 -26 28 -1 -19
right_child=1 2 12 -5 7 -7 15 -9 9 13 11 -13 -14 -15 -16 16 20 23 -20 -21 -22 -23 -24 24 25 -27 -28 -29 -30 -31
leaf_value=-0.00827821307743868 0.075282724893865505 -0.021115342102305798 0.072492453833307283 -0.012458028169634108 0.040376109703866007 -0.0028709123818998206 0.017750991333642777 0.078765433781407698 0.060815118454393337 -0.028154271478198996 0.11116781977649155 0.58949493469030556 0.021151733717451326 0.08100312680062155 0.03885407851194448 0.17346589501461318 0.74519269572618008 0.0047864147565764084 0.038479087520628771 0.68443671929003036 0.031805639953594554 -0.056962043163762001 -0.056180412357830195 0.099703134216872144 0.75438950862199583 0.15121310093141035 2.3946299294124049 0.069498981215919284 0.060342248391790969 0.6979327106479104
leaf_weight=2109.1330006271601 1092.0786369368434 2688.422563447617 14243.445236947387 8420.3200813904405 6156.9864110313356 3523.5203888695687 12055.98077315744 26608.591811379418 7327.0399840082973 2224.6493868976831 70.44773684348911 53.316259806975722 5052.2324216291308 681.84263099357486 8292.8457296565175 1339.3393193474039 26.890764247626066 1542.3642762750387 679.24892467912287 23.271140417084098 11569.874815454707 20.109900451265275 129.97996070515364 442.41429809294641 10.646128131076692 20.840828570537269 3.5125636439770451 281825.72032557428 7376.8115904834121 11.442754764109848
leaf_count=15783 5626 84933 89815 275652 63192 108993 254996 51815 68253 56890 554 272 34522 6690 64375 12249 147 35573 15171 170 223292 507 2740 7120 93 389 8 131384 6799 176
internal_value=0.0620163 0.0451852 0.0337523 0.020146 0.0654792 0.0234969 0.0291282 0.0715517 0.0678255 0.0428193 0.0999108 0.317226 0.0529792 -0.00254671 0.0601143 0.0339738 0.0463368 0.0823601 0.12298 0.161434 0.0333033 0.401979 0.153151 0.0389287 0.133436 0.559837 1.16131 0.068704 0.045085 0.00989098
internal_weight=405623 104078 66573.2 38984.7 37504.9 4739.36 30564.3 32765.6 301545 10233.5 1215.84 123.764 27588.5 2906.49 22536.3 27875.9 15819.9 4203.06 2171.84 1492.59 11616.9 47.0007 1469.32 2031.22 477.414 34.9995 14.1587 291312 9485.94 1553.81
internal_count=1618179 1332380 1101928 913216 230452 115445 637564 115007 285799 131833 6452 826 188712 63580 154190 552631 297635 73689 30330 15159 223946 654 14989 43359 7610 490 101 153966 22582 35749
is_linear=0
shrinkage=0.05


Tree=14
num_leaves=31
num_cat=0
split_feature=20 17 3 17 1 25 12 10 5 12 13 17 17 12 177 29 6 27 6 16 3 57 38 146 174 28 136 47 71 123
split_gain=17624.5 8863.08 5626.34 5213.76 2734.34 2681.77 2642.66 2614.58 2649.41 2498.05 2423.26 2351.19 2956.48 2296.21 2221.59 3067.5 2219.78 2515.75 2138.93 2077.67 2037.71 1954.36 2629.51 2359.14 2253.3 2461.23 1939.24 2420.02 1931.46 2318.28
threshold=-1.0524340867996214 -1.2481125593185423 0.99636316299438488 0.97867718338966381 0.60365402698516857 -0.42130875587463373 0.41490571200847631 3.525630116462708 1.4354691505432131 -3.603772640228271 0.1038794368505478 8.9993891716003436 3.1461015939712529 -4.0676462650299063 -2.9460024833679195 -0.21414501219987866 -0.35206019878387446 -0.36449126899242396 -0.19339663535356519 3.2499741315841679 -0.93381494283676136 -0.27339410781860346 0.082999784499406828 -1.0691723823547361 -0.086033932864665971 -1.1749424934387205 -1.548965275287628 1.9409101605415346 -1.6267934441566465 1.1337569952011111
decision_type=2 2 2 2 2 2 2 2 2 2 2 2 2 2 2 2 2 2 2 2 2 2 2 2 2 2 2 2 2 2
left_child=7 6 3 5 -4 -3 -2 14 16 -10 -7 12 -6 -5 15 -1 -9 -18 -17 -15 -19 -12 -23 26 25 -25 27 -24 -27 -30
right_child=1 2 4 13 11 10 -8 8 9 -11 21 -13 -14 19 -16 18 17 20 -20 -21 -22 22 23 24 -26 28 -28 -29 29 -31
leaf_value=0.058004800295581874 0.000506584222825681 -0.016605039955414066 0.070911279527886562 0.073301785997724148 0.045916478173434028 -0.018165896446099877 0.074075031358307883 0.081806968404798397 0.20841081437936304 0.058597193930595717 0.021989698810589993 0.14226825741726726 -0.0065344799902332914 0.0078329960999933262 0.067783561302533921 0.075202429862559081 -0.025363678508591111 0.043666533499336101 -0.042588110404633978 -0.033844927392464301 1.3259115486874098 0.035501792803618225 0.29299986399717737 0.42514034679538026 0.039464944943986106 -0.0061405849971089468 0.11617800787704567 1.2900457260761211 0.091098885045062972 0.38494137582092747
leaf_weight=7237.7172576729208 1291.8037693789229 2330.0976645816118 11601.26700774394 1024.5387726295739 19147.095605492592 1772.779368606396 22167.193322777748 1310.8926450274885 384.62653086148202 1006.0961844213307 9035.9280623840168 560.22542563639581 3125.141194825992 10416.274082995951 272627.90488050506 521.01999018527567 2607.1082359552383 2433.8867979887873 1480.680582055822 4194.3026004200801 3.1023734472692004 14274.757617917843 123.0928768152371 53.617674896493554 4795.6657050037757 521.92037990223616 354.1106792781502 6.4025136986747375 3994.6157484455034 68.271139848046005
leaf_count=6074 31065 69806 51233 935 113300 44775 38798 2183 1873 1158 159860 136 34088 303337 131694 816 52676 43044 14688 128238 27 240303 1309 296 74849 9852 4326 54 56581 805
internal_value=0.0596892 0.0427355 0.035411 0.0251824 0.0511449 0.0353345 0.0700239 0.0661788 0.0375204 0.100031 0.0387923 0.0411015 0.0385568 0.000942448 0.0669664 0.0428539 0.0238407 0.008776 -0.0119286 -0.00413161 0.0452989 0.0418311 0.0492419 0.0690182 0.063497 0.0883437 0.176726 0.342296 0.084405 0.0960365
internal_weight=400472 110859 87400.1 52966.4 34433.7 37331.3 23459 289613 7745.71 1390.72 35001.2 22832.5 22272.2 15635.1 281867 9239.42 6354.99 5044.1 2001.7 14610.6 2436.99 33228.4 24192.5 9917.7 9434.09 4638.42 483.606 129.495 4584.81 4062.89
internal_count=1618179 1363946 1294083 1095326 198757 662816 69863 254233 100961 3031 593010 147524 147388 432510 153272 21578 97930 95747 15504 431575 43071 548235 388375 148072 142383 67534 5689 1363 67238 57386
is_linear=0
shrinkage=0.05


Tree=15
num_leaves=31
num_cat=0
split_feature=20 17 3 21 10 29 23 39 3 31 2 21 41 9 6 12 9 21 6 19 54 17 22 139 105 115 29 31 172 13
split_gain=19235.7 8586.37 6371.29 3299.75 3971.52 3281.56 5441.68 2708.58 3392.11 3864.94 2660.35 3045.91 2510.33 2263.26 2244.15 2234 2270.41 2146.55 2464.52 2130.51 2074.31 2041.64 2072.34 1991.08 2347.11 2777.38 1974.3 1894.01 1886.9 1876.57
threshold=-0.91138276457786549 -0.80384850502014149 -0.59457561373710621 -0.63838747143745411 -0.093516007065772996 0.55634894967079174 0.94492626190185558 -0.31360696256160731 1.2603318691253664 0.60812321305274974 0.28812058269977575 -2.3597412109374996 -0.74442932009696949 -1.2827845215797422 -0.19339663535356519 0.21731029450893405 -1.3233851790428159 1.0852862596511843 0.17148102819919589 0.88527309894561779 0.021171608008444313 2.8559862375259404 -1.5718340277671812 0.063696499913930907 -0.59744128584861744 0.27453854680061346 0.46039532124996191 1.2782535552978518 -8.9451074600219709 0.42866247892379766
decision_type=2 2 2 2 2 2 2 2 2 2 2 2 2 2 2 2 2 2 2 2 2 2 2 2 2 2 2 2 2 2
left_child=5 15 3 4 10 -1 13 8 9 -4 -3 -12 26 14 -7 16 -2 -5 -19 -16 -14 -10 -23 24 -22 -26 -9 -13 -25 -17
right_child=1 2 7 17 -6 6 -8 12 21 -11 11 27 20 -15 19 29 -18 18 -20 -21 23 22 -24 28 25 -27 -28 -29 -30 -31
leaf_value=0.065624660104010621 0.092242172195895325 0.015874197555628557 0.030702583532722816 -0.031851308199966774 -0.017247492520379791 0.095273067563340891 0.06845061456518077 0.059714405809790608 0.055155527193283815 -0.013942421950827949 1.1163233661231446 0.029608757214838011 0.052653301932583045 -0.0099360182655913471 -0.045622646385510078 0.026316044722944795 -0.01601519614783584 0.10586152267793557 -0.043598845514874765 0.042510253244229627 0.063760202658345935 0.094650128554123705 -0.0082821495008387966 1.3321457469758065 0.031741575209232854 0.47398990067343894 0.025970188545799938 0.13245222415919308 0.097935663678436674 0.070889534459430109
leaf_weight=269469.05959829688 683.97055700421333 1752.9732252657413 15843.317168670706 6767.1862782621756 2901.5058798585087 1323.9754203855991 10965.908869726583 8475.4721979266033 13560.33576394245 6984.9613382024691 7.3512200163677326 686.64280733373016 2625.1283043157309 4342.7032764237374 937.87630538642406 2618.6638376479968 1659.1630658963695 651.60925882030278 478.25370661821216 2550.4936559107155 115.65545694343746 600.96062922850251 2624.4287124816328 3.1016238685697308 48.887145574204624 129.65503577515483 8872.2573774782941 1286.3916220348328 1984.5916137229651 24026.052660601214
leaf_count=166061 3282 36444 232048 255137 127196 1597 20581 76436 61680 157026 41 14990 32716 79357 10681 29742 53732 3225 15708 20174 938 2335 28127 14 828 409 114516 5524 21539 46095
internal_value=0.0575138 0.039223 0.030432 0.000639355 0.0266329 0.0641702 0.0446921 0.0374298 0.0295884 0.0170422 0.060736 0.100446 0.0513876 0.0162341 0.0398502 0.0623926 0.0155856 -0.0211997 0.0425972 0.018815 0.0829622 0.0466511 0.0108964 0.11783 0.239231 0.352897 0.0424564 0.0966613 0.0998615 0.0665088
internal_weight=394979 105389 76400.7 14531.9 6634.86 289590 20121 61868.8 39614 22828.3 3733.36 1980.39 22254.7 9155.05 4812.35 28987.9 2343.13 7897.05 1129.86 3488.37 4907.02 16785.7 3225.39 2281.89 294.198 178.542 17347.7 1973.03 1987.69 26644.7
internal_count=1618179 1319728 1186877 458265 184195 298451 132390 728612 481216 389074 56999 20555 247396 111809 32452 132851 57014 274070 18933 30855 56444 92142 30462 23728 2175 1237 190952 20514 21553 75837
is_linear=0
shrinkage=0.05


Tree=16
num_leaves=31
num_cat=0
split_feature=20 17 3 17 10 21 3 56 3 21 5 26 50 48 1 19 3 1 12 177 24 41 12 17 17 6 3 16 15 66
split_gain=20547.9 7841.98 4549.76 4154.48 3022.5 2532.23 3834.36 2461.36 2456.6 2406.61 2473.79 2947.29 2402.67 3068.48 2315.94 2312.61 2296.19 2274.67 2244.12 2218.94 2915.82 2185.12 2011.22 1976.41 2429.88 1924.09 2761.08 1865.55 1748.64 1624.07
threshold=-1.0524340867996214 -1.2481125593185423 0.99636316299438488 0.97867718338966381 3.0300626754760747 -1.0842078328132627 -1.439377427101135 0.030027616769075397 -4.1583204269409171 -0.66516393423080433 -0.45941188931465143 0.91549551486969005 0.031413400545716293 1.0000000180025095e-35 0.6254107952117921 1.7836818695068362 -1.8319387435913084 0.56764167547225963 0.41490571200847631 -2.9460024833679195 0.40426561236381536 -0.66604676842689503 -4.0676462650299063 8.9993891716003436 3.1461015939712529 -0.19339663535356519 -2.4914506673812862 3.2499741315841679 -0.2452498376369476 -2.299538135528564
decision_type=2 2 2 2 2 2 2 2 2 2 2 2 2 2 2 2 2 2 2 2 2 2 2 2 2 2 2 2 2 2
left_child=4 18 3 5 19 16 9 -8 28 10 11 -7 13 -9 21 -10 -3 -4 -2 20 25 29 -5 24 -19 -1 -27 -24 -6 -15
right_child=1 2 17 22 8 6 7 12 15 -11 -12 -13 -14 14 -16 -17 -18 23 -20 -21 -22 -23 27 -25 -26 26 -28 -29 -30 -31
leaf_value=0.06729533596235035 -0.00060840550844580912 0.09856212557623123 0.063357465627210258 0.068919784983795848 -0.0025670323221957227 0.089320732431519778 0.011280608100885103 0.31094857055836922 -0.027521901926278916 -0.030929901189236442 -0.0091780712204833966 0.64718963811204155 0.020337240486300166 0.42990994529154514 0.00089707152516880432 0.34684530000890756 -0.013526377117708875 0.040212077561990633 0.06708592131043993 0.064655253536024193 0.05787852710573347 0.082016793868534429 0.0064951567717830231 0.12759489584259517 -0.0069639191113701664 -0.077763901649483436 0.043828698690180933 -0.033257743376598467 0.059834354557380842 0.037879551098114368
leaf_weight=685.93439801968634 1295.9179332684726 2270.3529326058924 11268.59732632339 993.52720634639263 1404.918566679582 729.76683891285211 8373.6346872653812 116.46582789439708 1730.6420011296868 4116.2967130094767 1146.264406346716 24.469296610914171 7496.4202970648184 26.53595086093992 1836.1133623914793 42.259397339075804 572.02266367990524 20594.23671445623 22148.311587220058 257907.45438811928 6245.3372195940465 6172.3414438879117 10585.801908867434 577.26020204089582 3146.528212569654 1188.9616274759173 768.74927528575063 4092.1526430211961 5588.2022244147956 5959.1061462806538
leaf_count=879 31065 8464 46591 935 26346 1542 153492 713 43237 135562 26344 47 126856 240 34709 310 14687 117705 38798 122203 4069 76004 303337 138 34323 12812 3773 128238 40604 84156
internal_value=0.0554841 0.0375841 0.0308812 0.0218028 0.0628595 0.0305709 0.0269834 0.0342938 0.0339706 -0.00944316 0.037095 0.107419 0.0432124 0.0553652 0.0532381 -0.0185984 0.0760045 0.0447873 0.063344 0.0638087 0.039247 0.0611427 7.23838e-05 0.0361822 0.0339595 -0.00476797 -0.0300172 -0.00458779 0.0472979 0.0396175
internal_weight=389105 113542 90097.9 54511.3 275562 38839.8 35997.4 29980.6 8766.02 6016.8 1900.5 754.236 21607 14110.6 13994.1 1772.9 2842.38 35586.6 23444.2 266796 8888.98 12158 15671.5 24318 23740.8 2643.65 1957.71 14678 6993.12 5985.64
internal_count=1618179 1363946 1294083 1095326 254233 662816 639665 476170 110497 163495 27933 1589 322678 195822 195109 43547 23151 198757 69863 143736 21533 160400 432510 152166 152028 17464 16585 431575 66950 84396
is_linear=0
shrinkage=0.05


Tree=17
num_leaves=31
num_cat=0
split_feature=20 17 10 6 3 7 23 12 10 176 12 39 35 12 27 29 15 3 1 4 177 24 19 180 12 9 38 25 12 183
split_gain=21696.5 7314.47 4170.32 3597.7 4874.25 4039.45 3717.23 3657.64 3148.44 2984.85 2720.09 2558.74 2405.09 2399.15 5538.29 4394.37 2644.25 2326.59 2316.91 2249.73 2143.51 3213.06 2135.67 2106.67 2032.59 1956.77 1918.33 1848.77 1839.84 1817.15
threshold=-1.0524340867996214 -1.2481125593185423 0.54466840624809276 0.053136819973587997 -1.439377427101135 -0.26865589618682856 0.91919499635696422 -0.26079246401786799 2.6021487712860112 0.57826393842697155 0.0815304070711136 -0.2865366786718368 -0.4382695853710174 -2.4717710018157955 -0.71165162324905384 -0.033227356150746339 0.38578942418098455 -4.1583204269409171 0.32195492088794714 0.38687309622764593 -2.3141506910324092 0.12164761498570444 0.83810970187187206 1.8018971681594851 0.41490571200847631 -1.9294531941413877 0.10840288922190668 -0.13214136660099027 0.50500419735908519 -0.58375263214111317
decision_type=2 2 2 2 2 2 2 2 2 2 2 2 2 2 2 2 2 2 2 2 2 2 2 2 2 2 2 2 2 2
left_child=8 24 3 6 25 7 10 -6 20 29 19 -11 -13 14 -8 -16 -15 -10 -9 23 21 -1 -19 -3 -2 -5 -14 -12 -28 -7
right_child=1 2 -4 4 5 9 13 18 17 11 27 12 26 16 15 -17 -18 22 -20 -21 -22 -23 -24 -25 -26 -27 28 -29 -30 -31
leaf_value=-0.0090445841735397933 -0.0005782135958974186 0.064989872213980254 -0.0067480157055741195 0.0283176879855991 -0.037125627921591541 0.76077122497004035 0.75418114412616921 0.047771364599483598 0.046438556162593181 0.019584642360179209 0.050381385973470721 0.015113310772266615 0.040727806892964513 0.078254302919306407 0.51547313568229602 0.083733620725160385 0.035135355391720177 -0.040631731220225932 0.0089701001119927553 -0.032042579335869875 0.063371970184924228 0.055052369110549816 0.076508668432775651 1.404742108867743 0.063861986803521592 -0.040350764708776514 0.1360971863817638 0.021221895263557802 0.032245722902937944 0.10276447092878171
leaf_weight=2480.1015697270632 1295.4192209225148 654.02238175179809 7504.7428755071014 1396.4263029089198 3019.8580468511209 10.550525495782493 31.893801166675985 5936.2806271007285 7346.933114329353 7167.8553132070228 11069.298954400234 1710.1664481796324 1460.3051872607321 5603.4108582502231 60.084556963294744 3087.8850470809266 9728.7542256712914 1634.5988628845662 10932.988146491349 2734.4233019798994 247222.28813771904 9237.3701419718564 510.65631863474846 2.9474152671173206 22104.129466703162 4035.6594991376624 1919.8413438135758 10680.846300276928 548.27057982143015 1900.3600856764242
leaf_count=18922 31065 9866 223220 14304 102812 74 81 80527 67446 109994 56130 25798 16249 29108 102 5064 91183 44543 159064 99475 110082 8298 4942 26 38798 140907 15171 95279 3483 16166
internal_value=0.0535695 0.0353565 0.0289578 0.0321596 0.021335 0.0282468 0.0420878 0.0135521 0.0613448 0.0481052 0.0295679 0.0394072 0.0646059 0.0590913 0.098616 0.0919741 0.0508939 0.0330623 0.0226242 -0.0120814 0.0623816 0.0414857 -0.0127476 0.0710005 0.0602945 -0.0226982 0.0861516 0.036062 0.113027 0.106397
internal_weight=383028 114596 91196.9 83692.1 40038.6 34606.5 43653.6 19889.1 268432 14717.3 25141.5 12806.4 5638.58 18512 3179.86 3147.97 15332.2 9492.19 16869.3 3391.39 258940 11717.5 2145.26 656.97 23399.5 5432.09 3928.42 21750.1 2468.11 1910.91
internal_count=1618179 1363946 1294083 1070863 684549 529338 386314 342403 254233 186935 260776 170695 60701 125538 5247 5166 120291 116931 239591 109367 137302 27220 49485 9892 69863 155211 34903 151409 18654 16240
is_linear=0
shrinkage=0.05


Tree=18
num_leaves=31
num_cat=0
split_feature=20 17 3 17 29 23 9 25 10 1 23 10 10 2 29 8 42 154 6 0 10 20 13 12 55 12 3 6 0 26
split_gain=22696.5 6829.24 3765.06 3586.9 3364.44 4651.64 2789.36 2483.46 2373.05 2159.36 3693.64 2647.07 3318.18 2183.61 1943.1 1921.44 2089.33 2027.24 1855.69 1954.91 2126.83 1848.14 2782.61 2216.56 2008.12 1845.19 1843.82 1822.88 1931.87 1775.78
threshold=-1.0524340867996214 -1.2481125593185423 1.2603318691253664 2.002934575080872 0.55634894967079174 1.2714716792106631 -1.4734745621681211 -0.4257484227418899 -0.96948024630546559 0.6254107952117921 0.94492626190185558 -1.643113851547241 -0.34798173606395716 0.36321993172168737 1.1315931081771853 0.33938649296760565 -0.086189690977334962 -3.4521758556365962 0.13596018403768542 -0.93329787254333485 -0.33477459847927088 0.70370912551879894 0.76696583628654491 1.6911665201187136 0.24665267020463946 0.41490571200847631 0.35531343519687658 0.55493059754371654 2.1552344560623173 0.46149682998657232
decision_type=2 2 2 2 2 2 2 2 2 2 2 2 2 2 2 2 2 2 2 2 2 2 2 2 2 2 2 2 2 2
left_child=4 25 3 7 29 6 27 18 -8 11 -11 -9 21 -12 -4 26 17 -17 -3 20 -20 24 -23 -24 -13 -2 -14 28 -6 -1
right_child=1 2 14 -5 5 -7 8 9 -10 10 13 12 15 -15 -16 16 -18 -19 19 -21 -22 22 23 -25 -26 -27 -28 -29 -30 -31
leaf_value=0.062333578433386085 -0.00054950897979742807 0.034065015389146629 0.048017423579721066 -0.010647346944856686 0.053453219918730657 0.076520303729486566 -0.074507064753525018 -0.035466223995782614 0.010396323029807739 -0.0061460847537403648 0.015704679790902874 0.10203881112026983 -0.0045298118481913313 0.097235072204410383 0.014245220318776669 0.47162337632867923 0.067594001870238576 0.015319974349633362 0.31646275722660872 -0.043927884584775173 -0.055760283066855869 -0.0231393724550851 0.0061426399078035572 0.10168218794566133 0.052786136625113313 0.060864228398878277 0.032329913450303983 -0.020543229258688164 0.32406244235046455 0.042103858215102784
leaf_weight=233081.79308757745 1294.9454496549442 1505.6635658880696 23998.563957067207 8152.2476040422916 4750.4190249927342 5412.2461445759982 994.87658966891468 1323.826218332164 4763.5949287796393 9239.3507492924109 1679.5160127626732 2860.348669519648 7261.8029138268903 1607.081166327931 5178.0428496599197 24.483447760343552 4279.7839687876403 4182.6711784144863 80.581485925242305 2765.1612999336794 73.272273370064795 1663.569322835654 1067.4215019540861 1407.7264360990375 7485.209748281166 22034.890536921099 6367.8799830712378 893.64198652282357 66.881282677873969 11377.535934090614
leaf_count=81536 31065 21257 111566 246958 13163 2869 12365 38001 69479 188093 16706 30030 184201 7179 29068 158 44839 55326 481 93999 1732 33240 16798 4081 95835 38798 74535 10715 147 63959
internal_value=0.0517429 0.0332885 0.0271737 0.0202993 0.0599012 0.0383129 0.0202834 0.0248968 -0.00427222 0.0280468 0.0100475 0.0339917 0.0365039 0.0555714 0.0420238 0.0243207 0.042997 0.0179754 -0.0110204 -0.0342761 0.139193 0.055107 0.0268691 0.0604802 0.0664036 0.0574554 0.0126913 0.0450435 0.0572102 0.0613921
internal_weight=376875 115534 92204.2 63027.6 261341 16881.7 11469.4 54875.3 5758.47 50450.7 12525.9 37924.7 36600.9 3286.6 29176.6 22116.6 8486.94 4207.15 4424.68 2919.02 153.854 14484.3 4138.72 2475.15 10345.6 23329.8 13629.7 5710.94 4817.3 244459
internal_count=1618179 1363946 1294083 1153449 254233 108738 105869 906491 81844 789022 211978 577044 539043 23885 140634 359059 100323 55484 117469 96212 2213 179984 54119 20879 125865 69863 258736 24025 13310 145495
is_linear=0
shrinkage=0.05


Tree=19
num_leaves=31
num_cat=0
split_feature=20 17 10 10 6 3 8 23 10 55 50 40 179 16 144 30 133 31 22 121 8 45 12 6 27 4 71 182 177 3
split_gain=23598.5 6379.75 3503.47 3387.01 2988.45 4726.89 3927.95 3856.6 2668.02 2718.16 4214.52 2553.37 2902.47 3303.24 2526.93 2329.68 2288.51 2213.04 3297.96 2704.65 2332.01 2199.34 2167.88 2161.59 2305.7 2053.14 1972.45 1958.23 1956.21 2373.97
threshold=-1.0524340867996214 -1.2481125593185423 3.525630116462708 0.54466840624809276 0.13336519896984103 -1.1583723425865171 0.52311593294143688 0.91919499635696422 -0.20743543654680249 0.39321337640285497 0.11375845968723299 0.45861835777759558 -0.38802510499954218 1.4447727203369143 1.3001230955123904 -1.479180574417114 0.84955486655235302 1.4153450131416323 -0.1737309247255325 -0.21066184341907498 0.34537057578563696 0.88506034016609203 0.56654900312423717 -0.31245924532413477 -0.33685536682605738 1.4262838959693911 -0.50515288114547718 -1.4703193902969358 -2.1533546447753902 -1.3922229409217832
decision_type=2 2 2 2 2 2 2 2 2 2 2 2 2 2 2 2 2 2 2 2 2 2 2 2 2 2 2 2 2 2
left_child=2 -2 21 4 7 -6 8 -3 9 10 25 16 13 14 -13 -4 -8 22 20 -20 -19 28 -9 -17 -25 26 -7 -18 29 -1
right_child=1 3 15 -5 5 6 11 17 -10 -11 -12 12 -14 -15 -16 23 27 18 19 -21 -22 -23 -24 24 -26 -27 -28 -29 -30 -31
leaf_value=0.00039856323126128248 0.054799324630893188 0.024052596254732897 0.086562787502321825 -0.0067213809988820906 -0.032046746568863853 0.062892253181381932 0.03179220276294855 0.018338192622166277 -0.014375480510570053 0.0091740428234522824 -0.0080906855340809134 -0.059458577804689855 0.095397457119836548 0.21136909494648398 1.2146363559171727 0.058378898792424305 0.99445655001901789 0.09643006358142002 0.5485656472202679 0.16708791623800154 0.025953845590220105 0.062759146405733351 0.05439621487470514 -0.036515799235044569 0.032665788076613113 -0.0091414936776122169 0.16835333968761224 0.19565356201090159 0.055327502718633473 0.054231577400347321
leaf_weight=3784.5811498332769 23239.961534612812 34478.564230764285 1339.9896232038736 7492.0776822352782 4513.1873559141532 739.24796722643077 4189.0525657003745 6321.6162478579208 6243.5781604545191 7157.4293232839555 1302.8281599339098 5.0509731173515346 1621.2791433921084 63.527297360822558 16.954523332417011 1984.1602826490998 8.2020830549299699 3008.128216240555 56.819523340091109 254.92848097905517 1924.8652357747778 170451.41340602003 12238.09612441808 2532.0920540262014 2296.8578655514866 330.66594521608204 1107.7278399318457 118.7771277576685 67372.372688062489 4463.007507102564
leaf_count=22208 69863 381775 1915 223220 150526 9446 43680 87252 141391 124223 23758 91 9557 381 62 4357 20 10359 101 136 6008 50159 66482 53847 40842 6904 7486 1225 75906 4999
internal_value=0.0500043 0.031362 0.0585422 0.0255173 0.0283357 0.0147226 0.0239382 0.0347396 0.0115705 0.0267987 0.063043 0.0586039 0.110374 0.394246 0.92219 0.026296 0.0381311 0.0502187 0.0788974 0.236616 0.0689301 0.0596107 0.0421145 0.0144428 -0.00361004 0.1056 0.126143 0.247251 0.0525138 0.0295292
internal_weight=370657 116433 254224 93192.6 85700.5 27417.5 22904.3 58283 16881.5 10637.9 3480.47 6022.84 1706.81 85.5328 22.0055 8153.1 4316.03 23804.5 5244.74 311.748 4932.99 246071 18559.7 6813.11 4828.95 2177.64 1846.98 126.979 75620 8247.59
internal_count=1618179 1363946 254233 1294083 1070863 518750 368224 552113 313208 171817 47594 55016 10091 534 153 100961 44925 170338 16604 237 16367 153272 153734 99046 94689 23836 16932 1245 103113 27207
is_linear=0
shrinkage=0.05


Tree=20
num_leaves=31
num_cat=0
split_feature=20 12 8 5 30 23 29 26 2 18 29 6 26 39 3 2 113 25 63 23 2 20 7 12 11 12 21 0 29 3
split_gain=24435 5996.01 4374.66 3864.43 3829.02 4785.33 5407.5 3763.54 3698.64 3441.71 3413.17 3279.24 4207.28 2927.69 2538.4 2420.05 2342.75 2158.76 2028.01 1973.79 1947.05 2186.64 1944.21 1842 3477.18 2605.43 1856.36 1744.32 1708.3 1634.57
threshold=-1.0524340867996214 1.5195804238319399 -0.709447681903839 -0.3645468652248382 -2.2636697292327876 0.94492626190185558 -0.056689230725169175 0.38016517460346227 2.2831743955612187 -0.79772040247917164 0.20475332438945773 -0.21191500872373578 0.078561916947364821 -0.52824068069457997 -2.3934066295623775 1.1930796504020693 -0.9234127104282378 -0.48115772008895868 0.8668067753314973 0.75572234392166149 -0.95148351788520802 -3.3076596260070796 -2.0264159440994258 0.28796917200088507 3.4662830829620366 1.0062494874000552 -2.9202928543090816 1.4427394866943362 1.1558458805084231 -0.15803045779466626
decision_type=2 2 2 2 2 2 2 2 2 2 2 2 2 2 2 2 2 2 2 2 2 2 2 2 2 2 2 2 2 2
left_child=4 2 -2 14 -1 6 -6 10 9 -3 13 20 16 -5 -4 27 -13 22 -19 -15 21 -8 -12 24 -16 26 -25 -11 -28 -9
right_child=1 8 3 7 5 -7 11 29 -10 15 17 12 -14 19 23 -17 -18 18 -20 -21 -22 -23 -24 25 -26 -27 28 -29 -30 -31
leaf_value=0.06232742106333812 -0.028506688737934979 0.067131701225532678 0.086238072077446423 0.015882559460309302 0.051365793907496161 0.063460380214087495 0.07138083823831283 -0.029997012303187728 -0.053451615267637032 0.04322002342063605 0.54776121539771594 -0.038237673438039514 -0.038834703148416416 0.11490265693684279 -0.008143585933541064 -0.023246459861898484 0.032292589636344717 0.030266337568073579 0.0035277454024749606 0.027615810311002804 0.070678522114721157 -0.035139188557375675 -0.037889632986866414 1.2805790302120279 0.11553076153217799 0.022502565398497244 0.090167383214761518 -0.0062420828872620593 -0.040090161034476539 0.0074063808716175504
leaf_weight=148290.23639661074 4269.9881411800161 13340.793807642534 3105.9655556185171 2120.0639695292339 40586.570241710171 38292.39131533727 835.86637282185256 4714.1734634106979 956.98976918496192 27465.560564137995 14.280624121427534 1356.7017742926255 3763.133624792099 2392.3061863305047 3829.1748958164826 1594.0660752374679 8907.4427897026762 22704.773843910545 10312.25712352898 888.08074624370784 3999.6861040107906 1137.335670048371 1849.0188443437219 3.2242643367499104 667.39637163374573 3929.4095830908045 3324.9560711588711 1906.1674304250628 272.32390272803605 7678.7014492247254
leaf_count=19296 186661 23877 7840 22610 42698 31944 2794 168854 16607 73985 134 12138 83891 12810 81113 19663 42075 340036 169256 8888 9388 10009 44552 25 207 16585 27021 16733 4173 122316
internal_value=0.0483261 0.0295374 0.0205805 0.0236717 0.0572457 0.0496245 0.0408799 0.0172738 0.0438 0.0459006 0.024687 0.0196008 0.00638949 0.0616762 0.0459417 0.0367537 0.02297 0.0189601 0.021915 0.091272 0.0506274 0.00998367 -0.0334011 0.0355347 0.0102126 0.0506561 0.0813814 0.04001 0.0803065 -0.00682164
internal_weight=364509 117340 72076.1 67806.1 247169 98879.1 60586.7 52673.7 45263.6 44306.6 40280.8 20000.2 14027.3 5400.45 15132.5 30965.8 10264.1 34880.3 33017 3280.39 5972.89 1973.2 1863.3 12026.5 4496.57 7529.91 3600.5 29371.7 3597.28 12392.9
internal_count=1618179 1363946 1213081 1026420 254233 234937 202993 889456 150865 134258 598286 160295 138104 44308 136964 110381 54213 553978 509292 21698 22191 12803 44686 129124 81320 47804 31219 90718 31194 291170
is_linear=0
shrinkage=0.05


Tree=21
num_leaves=31
num_cat=0
split_feature=20 17 10 23 12 12 24 30 49 10 3 17 3 6 2 0 10 12 56 12 23 12 23 18 10 12 12 35 41 40
split_gain=25128.4 5452.67 3598.11 3640.05 4645.88 4106.55 3692.12 3435.28 4276.72 3308.99 3070.65 2869.87 2780.56 2568.29 2522.61 2449.06 2821.4 2036.5 2017.03 3162.24 1988.74 2773.43 4374.87 2307.72 2032.78 1853.1 3261.35 2086.76 1813.64 1961.72
threshold=-1.273460268974304 -1.2481125593185423 0.67668899893760692 0.91919499635696422 -2.7002745866775508 -1.8546503186225889 -0.24542968720197675 -2.2636697292327876 -3.2209715843200679 3.9247177839279179 0.97290503978729259 0.44826178252696997 -1.2721225619316099 -0.072400622069835649 -0.24921441823244092 -0.35300789773464197 -0.047266155481338494 0.40039581060409551 0.62161457538604747 1.028094530105591 0.77589064836502086 0.32987980544567114 0.46143187582492834 -0.35126404464244837 -1.2064132094383238 -3.5148340463638301 -3.0731853246688838 -1.0741870403289793 -1.152857720851898 0.16291911154985431
decision_type=2 2 2 2 2 2 2 2 2 2 2 2 2 2 2 2 2 2 2 2 2 2 2 2 2 2 2 2 2 2
left_child=7 17 3 5 6 -3 25 -1 12 20 11 -6 13 -9 -8 16 18 -2 -7 28 21 22 24 -24 -10 -5 27 -27 29 -20
right_child=1 2 -4 4 10 15 14 8 9 -11 -12 -13 -14 -15 -16 -17 -18 -19 19 -21 -22 -23 23 -25 -26 26 -28 -29 -30 -31
leaf_value=0.061447630914450206 0.00026351862616400814 -0.037084947843817669 -0.011774921534206863 0.059348263069534828 0.029147605863797662 0.027803269361764655 -0.010445961493453643 0.036197910267275479 -0.096666505124804875 0.016984021849785955 0.044364872270731638 -0.016944661446771318 0.049206228734787721 -0.083043403014741835 0.074480356839755124 0.012172653319655056 -0.01948128663219769 0.053161979651837311 -0.020748398927233881 0.02506410948433312 0.062039792771681673 0.051713798902988578 -0.068569991642862468 0.056946150622678604 0.0056144696877472346 0.51891174848956334 0.11562041475818062 0.23682099200207074 0.11723575992080426 0.093825114054927314
leaf_weight=142824.29882532731 1964.9863659432158 3178.8370663356036 6646.3635248225182 277.27452597022057 9787.6314901243895 12823.494045295753 1047.2591831739992 677.69520415272564 999.21965969726443 6559.5277699409053 16878.65387111716 5156.2153289550915 1355.8375220485032 1353.3990980293602 5297.1715922709554 30389.766210719012 2226.7395012509078 24563.801065277308 619.3931553401053 3403.3893944323063 38352.9815272782 32514.14626130648 407.18462164886296 3638.7405263753608 945.39131653308868 104.7222500257194 366.05183577723801 175.30770887061954 2465.412189796567 941.47864981740713
leaf_count=19020 38072 99920 210649 84 132745 85993 10756 2084 9743 87304 89272 127311 1980 13390 6533 483988 45914 42302 8691 6531 22346 18040 4444 10703 14388 169 1109 286 17241 7171
internal_value=0.0467769 0.0290545 0.0237925 0.0262772 0.0379881 0.0181095 0.0740573 0.0566799 0.0488354 0.0510717 0.0297505 0.013244 -0.00624284 -0.0432573 0.0604618 0.0214282 0.0339403 0.0492438 0.0398138 0.0605438 0.0539809 0.0459539 0.0146912 0.0443141 -0.0469416 0.167473 0.213876 0.342314 0.0905344 0.0483595
internal_weight=357942 128314 101785 95138.8 39090.3 56048.5 7267.79 229628 86804.1 83417.2 31822.5 14943.8 3386.93 2031.09 6344.43 52869.7 22479.9 26528.8 20253.2 7429.67 76857.7 38504.7 5990.54 4045.93 1944.61 923.356 646.082 280.03 4026.28 1560.87
internal_count=1618179 1414737 1334363 1123714 368265 755449 18937 203442 184422 166968 349328 260056 17454 15474 17289 655529 171541 80374 125627 39634 79664 57318 39278 15147 24131 1648 1564 455 33103 15862
is_linear=0
shrinkage=0.05


Tree=22
num_leaves=31
num_cat=0
split_feature=20 17 30 49 10 5 17 15 3 23 12 1 2 26 6 6 3 22 9 12 10 39 29 50 18 23 5 6 13 128
split_gain=25847.6 5105.69 3608.53 3987.78 3481.98 3397.11 3149.81 3128.54 2541.74 2480.24 3162.02 5949.7 3887.16 2366.61 2349.92 2198.37 3070.22 2003.01 1996.83 1863.55 1802.96 1787.15 2353.53 1814.19 3144.01 1767.79 1767.6 2007.59 1760.69 1752.61
threshold=-1.273460268974304 -1.2481125593185423 -2.2636697292327876 -3.2209715843200679 -2.1594173908233638 -0.37029631435871119 3.2776616811752324 1.3926353454589846 -1.2721225619316099 1.2714716792106631 0.32987980544567114 0.77181681990623485 -0.59699329733848561 0.38016517460346227 -0.072400622069835649 0.10142672434449197 0.60607448220253002 -0.81234100461006153 -0.40976023674011225 0.40039581060409551 -0.10254882276058196 -0.71279239654541005 0.27662068605422979 -0.59365198016166676 -0.86811363697051991 0.57152464985847484 1.2940878272056582 -0.35206019878387446 0.71941813826560985 2.1657212972640996
decision_type=2 2 2 2 2 2 2 2 2 2 2 2 2 2 2 2 2 2 2 2 2 2 2 2 2 2 2 2 2 2
left_child=2 19 -1 8 -5 7 13 15 14 10 11 12 26 21 -4 -3 -17 -15 -14 -2 -18 -7 -23 24 29 -26 27 -6 -9 -24
right_child=1 5 3 4 9 6 -8 28 -10 -11 -12 -13 18 17 -16 16 20 -19 -20 -21 -22 22 23 -25 25 -27 -28 -29 -30 -31
leaf_value=0.060595819695673209 0.00025030580247934831 0.038780858192675835 0.034690185762038799 0.060092441447511392 0.056450521912228491 0.013337281191895957 -0.027100805116385258 0.13459641613026879 0.047366290775859028 0.067532155280003545 0.046241415979050265 -0.050690186395950201 0.076258399098753191 0.028238023542106524 -0.079939666033268658 -0.045887261606687713 0.040423409745612655 -0.0094488339226146412 -0.022362791824745876 0.050862408496519323 -0.030528153077203819 0.053849218649856229 0.12628128734624183 0.013793013797503792 -0.014729057210041025 0.050165492020404316 0.089364293342402354 -0.019879233358652326 0.05841698536619655 1.3053063284433455
leaf_weight=137719.91838261113 1965.2659859163687 18458.463005933911 671.94225148670375 40464.952579667792 1080.5527903586626 21722.604733658023 3923.9987351894379 945.56217464897782 1338.527412334457 6588.4057217184454 20910.587740501389 2732.3490270357579 4350.6364022037014 5143.3719409871846 1336.1014286233112 2026.1841989681125 4417.0067923860624 11209.79713704437 581.91646931692958 24394.993613060564 1123.0135579258204 8829.1548191923648 938.91910807788372 14976.20877617877 1500.8015509461984 3489.3280244190246 554.95653534773737 4248.3201543102041 3833.7006978522986 3.1625623423606148
leaf_count=19020 38072 116904 2084 10269 1742 297463 124787 2798 1980 3640 17446 23845 19876 58339 13390 80115 16263 266684 13175 42302 16381 65126 6005 207969 27569 38063 3497 73478 9867 30
internal_value=0.0452799 0.0274626 0.0555984 0.047488 0.0496842 0.0224172 0.0164536 0.0363054 -0.00600514 0.0394238 0.0340497 0.0152334 0.0318865 0.0189739 -0.0415816 0.0294769 0.00677895 0.00240437 0.0646236 0.0470891 0.0260409 0.0242394 0.0322032 0.0230626 0.046464 0.0306482 0.0044423 -0.0044016 0.0734888 0.130239
internal_weight=351481 128902 222579 84859.2 81512.7 102541 71737.3 30803.9 3346.57 41047.7 34459.3 13548.7 10816.4 67813.3 2008.04 26024.7 7566.2 16353.2 4932.55 26360.3 5540.02 51460.2 29737.6 20908.4 5932.21 4990.13 5883.83 5328.87 4779.26 942.082
internal_count=1618179 1414737 203442 184422 166968 1334363 1092035 242328 17454 156699 153059 135613 111768 967248 15474 229663 112759 325023 33051 80374 32644 642225 344762 279636 71667 65632 78717 75220 12665 6035
is_linear=0
shrinkage=0.05


Tree=23
num_leaves=31
num_cat=0
split_feature=20 17 30 81 10 5 15 17 23 12 1 2 22 26 30 21 7 12 27 177 6 3 3 6 44 9 12 12 141 113
split_gain=26448.1 4767.18 3741.07 3770.85 3429.94 3089.45 2903.46 2836.21 2336.32 3171.77 5232.58 3423.95 2240.9 2545.03 2222.81 2188.54 2108.79 2057.46 2139.58 1953.33 1939.69 2185.37 1846.07 2693.9 1717.26 1711.74 1708.86 1706.41 1685.27 1678.42
threshold=-1.273460268974304 -1.2481125593185423 -2.2636697292327876 -3.2043100595474239 -2.1594173908233638 -0.37029631435871119 1.3926353454589846 3.2776616811752324 1.2714716792106631 0.35883167386054998 0.77181681990623485 -0.59699329733848561 -0.91748052835464466 0.38016517460346227 -0.33425331115722651 -1.4010311961174009 -1.5616939067840574 -2.7409672737121578 -0.32311639189720148 2.3649209737777714 0.15188597887754443 0.99636316299438488 -1.2721225619316099 -0.21191500872373578 0.71242341399192821 -0.40976023674011225 0.12256034463644029 0.40039581060409551 0.79392313957214367 -6.4405214786529532
decision_type=2 2 2 2 2 2 2 2 2 2 2 2 2 2 2 2 2 2 2 2 2 2 2 2 2 2 2 2 2 2
left_child=2 27 -1 22 -5 6 20 12 9 10 11 -6 28 14 16 17 -14 18 19 -16 -3 -22 23 -4 -11 -13 -17 -2 -7 -30
right_child=1 5 3 4 8 7 -8 -9 -10 24 -12 25 13 -15 15 26 -18 -19 -20 -21 21 -23 -24 -25 -26 -27 -28 -29 29 -31
leaf_value=0.059792970954741266 0.0002377576313009603 0.034625686308728025 0.07188175826074597 0.058938766542595535 0.0038056947565422504 0.054798133265447073 0.070395550062182052 -0.026275970395290549 0.065879883258241234 0.031999765527394905 -0.048271502978465865 0.071157901451256375 -0.0030393092702397564 -0.0068239778060012139 0.16705356056416465 -0.016872904415777684 0.035118197146794081 -0.015997788973636077 0.062976463597351193 0.53548760640968929 -0.044168908057451495 0.024124763748156797 0.042470503763258498 -0.069099526528164881 0.060802467562537738 -0.021284833199973791 0.015405422114070064 0.048679097337896465 0.57011883954101461 0.017253537580704078
leaf_weight=132717.55500698462 1965.5316376369447 20973.109418540262 436.69014250487089 39046.270602541044 5835.1947608478367 6422.0533146159723 4740.1142319329083 3846.8160091014579 6418.0211378540844 11274.392626626417 2692.0051038395613 4337.4570812340826 4365.6012427173555 12050.854650363326 205.32826232071966 7697.7144466927275 21225.66257960815 547.49802036304027 769.72437675576657 43.616402256302536 1793.6028048023582 3376.74018474482 1145.5164543930441 1512.2508051889017 9565.6337651666254 566.12095124833286 8774.1313099246472 24219.212337458506 13.757741581648586 6323.1881616292521
leaf_count=19020 38072 138249 459 10524 78672 43756 12665 124787 3587 12322 23781 19916 69933 283216 271 211300 197665 20546 1813 54 70990 20424 2117 14945 4993 13106 91139 42302 77 47478
internal_value=0.0438631 0.02599 0.0545891 0.046251 0.0483527 0.0211543 0.0343915 0.0154987 0.0381939 0.033009 0.0140613 0.029687 0.0178468 0.0135158 0.0191339 0.00569126 0.0286089 0.0621726 0.104186 0.231605 0.0278636 0.000433546 -0.00790287 -0.0375105 0.0452203 0.0604853 0.000320935 0.0450429 0.0367472 0.0184538
internal_weight=344901 129354 215547 82829.6 79735.1 103170 30883.6 72285.9 40688.8 34270.8 13430.8 10738.8 68439.1 55680.1 43629.3 18038 25591.3 1566.17 1018.67 248.945 26143.5 5170.34 3094.46 1948.94 20840 4903.58 16471.8 26184.7 12759 6336.95
internal_count=1618179 1414737 203442 184422 166901 1334363 242328 1092035 156377 152790 135475 111694 967248 875937 592721 325123 267598 22684 2138 325 229663 91414 17521 15404 17315 33022 302439 80374 91311 47555
is_linear=0
shrinkage=0.05


Tree=24
num_leaves=31
num_cat=0
split_feature=20 12 8 5 30 11 18 2 28 3 3 6 1 10 31 11 12 11 26 41 40 55 10 183 122 21 3 5 13 29
split_gain=26885.5 4446.89 4482.61 4219.39 3885.34 3751.72 3531.66 3937.91 3449.92 3251.5 2651.73 6624.33 2349.22 2674.3 2291.46 2172.82 2885.09 2115.73 2050.9 2092.86 2038.57 2028.54 1988.8 3730.41 1871.38 1870.42 2736.52 1741.09 1719 1622.98
threshold=-1.273460268974304 1.5854321718215945 -0.709447681903839 -0.3645468652248382 -2.2636697292327876 1.4459613561630251 -0.79772040247917164 1.4725475907325747 -0.49328494071960444 -2.3934066295623775 -0.69979462027549733 -0.1992801949381828 0.6254107952117921 -0.34798173606395716 0.16010298579931262 3.4662830829620366 -0.055134050548076623 1.8587459325790407 -0.47971877455711359 -0.99387410283088673 0.87013188004493724 0.25304646790027624 3.525630116462708 2.0923234224319462 -0.56657531857490528 -0.94783416390418995 -0.67768764495849598 1.2940878272056582 -0.19189698994159696 1.1558458805084231
